digraph Tree {
node [shape=box, style="filled, rounded", color="black", fontname="helvetica"] ;
edge [fontname="helvetica"] ;
0 [label="sensitive <= 0.5\ngini = 0.999\nsamples = 1472\nvalue = [1, 1, 1 ... 1, 1, 1]\nclass = #GLITTERMASK GRAVITYMUD™ Firming Treatment", fillcolor="#ffffff"] ;
1 [label="rank <= 0.5\ngini = 0.999\nsamples = 716\nvalue = [1, 1, 1 ... 1, 0, 0]\nclass = #GLITTERMASK GRAVITYMUD™ Firming Treatment", fillcolor="#ffffff"] ;
0 -> 1 [labeldistance=2.5, labelangle=45, headlabel="True"] ;
2 [label="dry <= 0.5\ngini = 0.923\nsamples = 13\nvalue = [0, 0, 0 ... 0, 0, 0]\nclass = AHA/BHA Acne Clearing Gel", fillcolor="#ffffff"] ;
1 -> 2 ;
3 [label="price <= 14.0\ngini = 0.9\nsamples = 10\nvalue = [0, 0, 0 ... 0, 0, 0]\nclass = AHA/BHA Acne Clearing Gel", fillcolor="#ffffff"] ;
2 -> 3 ;
4 [label="gini = 0.0\nsamples = 1\nvalue = [0, 0, 0 ... 0, 0, 0]\nclass = Eye Mask - Grape - Smoothing", fillcolor="#39e57b"] ;
3 -> 4 ;
5 [label="price <= 23.5\ngini = 0.889\nsamples = 9\nvalue = [0, 0, 0 ... 0, 0, 0]\nclass = AHA/BHA Acne Clearing Gel", fillcolor="#ffffff"] ;
3 -> 5 ;
6 [label="gini = 0.0\nsamples = 1\nvalue = [0, 0, 0 ... 0, 0, 0]\nclass = Purity Made Simple® Facial Cleansing Gel & Eye Makeup Remover", fillcolor="#9239e5"] ;
5 -> 6 ;
7 [label="price <= 24.5\ngini = 0.875\nsamples = 8\nvalue = [0, 0, 0 ... 0, 0, 0]\nclass = AHA/BHA Acne Clearing Gel", fillcolor="#ffffff"] ;
5 -> 7 ;
8 [label="gini = 0.0\nsamples = 1\nvalue = [0, 0, 0 ... 0, 0, 0]\nclass = Clarifying Toner", fillcolor="#8fe539"] ;
7 -> 8 ;
9 [label="price <= 30.0\ngini = 0.857\nsamples = 7\nvalue = [0, 0, 0 ... 0, 0, 0]\nclass = AHA/BHA Acne Clearing Gel", fillcolor="#ffffff"] ;
7 -> 9 ;
10 [label="gini = 0.0\nsamples = 1\nvalue = [0, 0, 0 ... 0, 0, 0]\nclass = Rose Deep Hydration Toner Mini", fillcolor="#c839e5"] ;
9 -> 10 ;
11 [label="price <= 44.5\ngini = 0.833\nsamples = 6\nvalue = [0, 0, 0 ... 0, 0, 0]\nclass = AHA/BHA Acne Clearing Gel", fillcolor="#ffffff"] ;
9 -> 11 ;
12 [label="gini = 0.0\nsamples = 1\nvalue = [0, 0, 0 ... 0, 0, 0]\nclass = GloPRO® EYE MicroTip™ Attachment Head", fillcolor="#39e5c5"] ;
11 -> 12 ;
13 [label="price <= 56.0\ngini = 0.8\nsamples = 5\nvalue = [0, 0, 0 ... 0, 0, 0]\nclass = AHA/BHA Acne Clearing Gel", fillcolor="#ffffff"] ;
11 -> 13 ;
14 [label="gini = 0.0\nsamples = 1\nvalue = [0, 0, 0 ... 0, 0, 0]\nclass = AHA/BHA Acne Clearing Gel", fillcolor="#e59839"] ;
13 -> 14 ;
15 [label="price <= 60.0\ngini = 0.75\nsamples = 4\nvalue = [0, 0, 0 ... 0, 0, 0]\nclass = Algae Brightening Mask", fillcolor="#ffffff"] ;
13 -> 15 ;
16 [label="gini = 0.0\nsamples = 1\nvalue = [0, 0, 0 ... 0, 0, 0]\nclass = Nutritious Radiant Vitality Energy Lotion", fillcolor="#393fe5"] ;
15 -> 16 ;
17 [label="price <= 126.0\ngini = 0.667\nsamples = 3\nvalue = [0, 0, 0 ... 0, 0, 0]\nclass = Algae Brightening Mask", fillcolor="#ffffff"] ;
15 -> 17 ;
18 [label="gini = 0.0\nsamples = 1\nvalue = [0, 0, 0 ... 0, 0, 0]\nclass = Algae Brightening Mask", fillcolor="#e5ba39"] ;
17 -> 18 ;
19 [label="price <= 209.5\ngini = 0.5\nsamples = 2\nvalue = [0, 0, 0 ... 0, 0, 0]\nclass = Facial Treatment Essence Karan Singh Limited Edition", fillcolor="#ffffff"] ;
17 -> 19 ;
20 [label="gini = 0.0\nsamples = 1\nvalue = [0, 0, 0 ... 0, 0, 0]\nclass = The Concentrate Mini", fillcolor="#e53992"] ;
19 -> 20 ;
21 [label="gini = 0.0\nsamples = 1\nvalue = [0, 0, 0 ... 0, 0, 0]\nclass = Facial Treatment Essence Karan Singh Limited Edition", fillcolor="#39e598"] ;
19 -> 21 ;
22 [label="price <= 47.0\ngini = 0.667\nsamples = 3\nvalue = [0, 0, 0 ... 0, 0, 0]\nclass = Kate's Mini Must Haves", fillcolor="#ffffff"] ;
2 -> 22 ;
23 [label="gini = 0.0\nsamples = 1\nvalue = [0, 0, 0 ... 0, 0, 0]\nclass = Limited Edition Dramatically Different Moisturizing Lotion+™", fillcolor="#399de5"] ;
22 -> 23 ;
24 [label="price <= 72.5\ngini = 0.5\nsamples = 2\nvalue = [0, 0, 0 ... 0, 0, 0]\nclass = Kate's Mini Must Haves", fillcolor="#ffffff"] ;
22 -> 24 ;
25 [label="gini = 0.0\nsamples = 1\nvalue = [0, 0, 0 ... 0, 0, 0]\nclass = Kate's Mini Must Haves", fillcolor="#39a3e5"] ;
24 -> 25 ;
26 [label="gini = 0.0\nsamples = 1\nvalue = [0, 0, 0 ... 0, 0, 0]\nclass = Radiance Transforming Mask", fillcolor="#9a39e5"] ;
24 -> 26 ;
27 [label="rank <= 1.5\ngini = 0.999\nsamples = 703\nvalue = [1, 1, 1 ... 1, 0, 0]\nclass = #GLITTERMASK GRAVITYMUD™ Firming Treatment", fillcolor="#ffffff"] ;
1 -> 27 ;
28 [label="gini = 0.0\nsamples = 1\nvalue = [0, 0, 0 ... 0, 0, 0]\nclass = Pro Light Self Tan Bronzing Mist", fillcolor="#7e39e5"] ;
27 -> 28 ;
29 [label="normal <= 0.5\ngini = 0.999\nsamples = 702\nvalue = [1, 1, 1 ... 1, 0, 0]\nclass = #GLITTERMASK GRAVITYMUD™ Firming Treatment", fillcolor="#ffffff"] ;
27 -> 29 ;
30 [label="rank <= 2.4\ngini = 0.998\nsamples = 487\nvalue = [0, 0, 0 ... 0, 0, 0]\nclass = 3 Muslin Cloths", fillcolor="#ffffff"] ;
29 -> 30 ;
31 [label="gini = 0.0\nsamples = 1\nvalue = [0, 0, 0 ... 0, 0, 0]\nclass = Advanced Génifique Youth Activating Serum Duo", fillcolor="#e5ac39"] ;
30 -> 31 ;
32 [label="dry <= 0.5\ngini = 0.998\nsamples = 486\nvalue = [0, 0, 0 ... 0, 0, 0]\nclass = 3 Muslin Cloths", fillcolor="#ffffff"] ;
30 -> 32 ;
33 [label="oily <= 0.5\ngini = 0.998\nsamples = 479\nvalue = [0, 0, 0 ... 0, 0, 0]\nclass = 3 Muslin Cloths", fillcolor="#ffffff"] ;
32 -> 33 ;
34 [label="rank <= 2.9\ngini = 0.998\nsamples = 459\nvalue = [0, 0, 0 ... 0, 0, 0]\nclass = 3 Muslin Cloths", fillcolor="#ffffff"] ;
33 -> 34 ;
35 [label="price <= 9.0\ngini = 0.5\nsamples = 2\nvalue = [0, 0, 0 ... 0, 0, 0]\nclass = Nose Strip", fillcolor="#ffffff"] ;
34 -> 35 ;
36 [label="gini = 0.0\nsamples = 1\nvalue = [0, 0, 0 ... 0, 0, 0]\nclass = Nose Strip", fillcolor="#3941e5"] ;
35 -> 36 ;
37 [label="gini = 0.0\nsamples = 1\nvalue = [0, 0, 0 ... 0, 0, 0]\nclass = Rose Floral Toner Mini", fillcolor="#cb39e5"] ;
35 -> 37 ;
38 [label="price <= 3.5\ngini = 0.998\nsamples = 457\nvalue = [0, 0, 0 ... 0, 0, 0]\nclass = 3 Muslin Cloths", fillcolor="#ffffff"] ;
34 -> 38 ;
39 [label="rank <= 3.1\ngini = 0.5\nsamples = 2\nvalue = [0, 0, 0 ... 0, 0, 0]\nclass = Hydrating Lip Mask", fillcolor="#ffffff"] ;
38 -> 39 ;
40 [label="gini = 0.0\nsamples = 1\nvalue = [0, 0, 0 ... 0, 0, 0]\nclass = Hydrating Lip Mask", fillcolor="#39cee5"] ;
39 -> 40 ;
41 [label="gini = 0.0\nsamples = 1\nvalue = [0, 0, 0 ... 0, 0, 0]\nclass = Lip Mask", fillcolor="#399ae5"] ;
39 -> 41 ;
42 [label="price <= 4.5\ngini = 0.998\nsamples = 455\nvalue = [0, 0, 0 ... 0, 0, 0]\nclass = 3 Muslin Cloths", fillcolor="#ffffff"] ;
38 -> 42 ;
43 [label="rank <= 4.1\ngini = 0.75\nsamples = 4\nvalue = [0, 0, 0 ... 0, 0, 0]\nclass = Sleeping Mask", fillcolor="#ffffff"] ;
42 -> 43 ;
44 [label="gini = 0.0\nsamples = 1\nvalue = [0, 0, 0 ... 0, 0, 0]\nclass = Sleeping Mask - Pearl", fillcolor="#e539d1"] ;
43 -> 44 ;
45 [label="rank <= 4.25\ngini = 0.667\nsamples = 3\nvalue = [0, 0, 0 ... 0, 0, 0]\nclass = Sleeping Mask", fillcolor="#ffffff"] ;
43 -> 45 ;
46 [label="gini = 0.0\nsamples = 1\nvalue = [0, 0, 0 ... 0, 0, 0]\nclass = Sleeping Mask", fillcolor="#e539d4"] ;
45 -> 46 ;
47 [label="rank <= 4.45\ngini = 0.5\nsamples = 2\nvalue = [0, 0, 0 ... 0, 0, 0]\nclass = Sleeping Mask - Rose", fillcolor="#ffffff"] ;
45 -> 47 ;
48 [label="gini = 0.0\nsamples = 1\nvalue = [0, 0, 0 ... 0, 0, 0]\nclass = Sleeping Mask - Rose", fillcolor="#e539d1"] ;
47 -> 48 ;
49 [label="gini = 0.0\nsamples = 1\nvalue = [0, 0, 0 ... 0, 0, 0]\nclass = Soft Touch Cotton Pads", fillcolor="#e539cb"] ;
47 -> 49 ;
50 [label="rank <= 3.1\ngini = 0.998\nsamples = 451\nvalue = [0, 0, 0 ... 0, 0, 0]\nclass = 3 Muslin Cloths", fillcolor="#ffffff"] ;
42 -> 50 ;
51 [label="price <= 25.5\ngini = 0.5\nsamples = 2\nvalue = [0, 0, 0 ... 0, 0, 0]\nclass = Eye Mask - Cucumber - Anti-Puffiness", fillcolor="#ffffff"] ;
50 -> 51 ;
52 [label="gini = 0.0\nsamples = 1\nvalue = [0, 0, 0 ... 0, 0, 0]\nclass = Eye Mask - Cucumber - Anti-Puffiness", fillcolor="#39e57b"] ;
51 -> 52 ;
53 [label="gini = 0.0\nsamples = 1\nvalue = [0, 0, 0 ... 0, 0, 0]\nclass = Xtend Your Youth Eye Cream", fillcolor="#e56f39"] ;
51 -> 53 ;
54 [label="price <= 5.5\ngini = 0.998\nsamples = 449\nvalue = [0, 0, 0 ... 0, 0, 0]\nclass = 3 Muslin Cloths", fillcolor="#ffffff"] ;
50 -> 54 ;
55 [label="rank <= 3.9\ngini = 0.667\nsamples = 3\nvalue = [0, 0, 0 ... 0, 0, 0]\nclass = Eye Mask", fillcolor="#ffffff"] ;
54 -> 55 ;
56 [label="gini = 0.0\nsamples = 1\nvalue = [0, 0, 0 ... 0, 0, 0]\nclass = Hand Mask - Avocado", fillcolor="#39e5da"] ;
55 -> 56 ;
57 [label="rank <= 4.15\ngini = 0.5\nsamples = 2\nvalue = [0, 0, 0 ... 0, 0, 0]\nclass = Eye Mask", fillcolor="#ffffff"] ;
55 -> 57 ;
58 [label="gini = 0.0\nsamples = 1\nvalue = [0, 0, 0 ... 0, 0, 0]\nclass = Hand Mask", fillcolor="#39e5d7"] ;
57 -> 58 ;
59 [label="gini = 0.0\nsamples = 1\nvalue = [0, 0, 0 ... 0, 0, 0]\nclass = Eye Mask", fillcolor="#39e57b"] ;
57 -> 59 ;
60 [label="rank <= 3.25\ngini = 0.998\nsamples = 446\nvalue = [0, 0, 0 ... 0, 0, 0]\nclass = 3 Muslin Cloths", fillcolor="#ffffff"] ;
54 -> 60 ;
61 [label="gini = 0.0\nsamples = 1\nvalue = [0, 0, 0 ... 0, 0, 0]\nclass = Dr. Andrew Weil for Origins™ Mega-Bright Dark Circle Minimizer", fillcolor="#39e544"] ;
60 -> 61 ;
62 [label="price <= 6.5\ngini = 0.998\nsamples = 445\nvalue = [0, 0, 0 ... 0, 0, 0]\nclass = 3 Muslin Cloths", fillcolor="#ffffff"] ;
60 -> 62 ;
63 [label="rank <= 4.25\ngini = 0.857\nsamples = 7\nvalue = [0, 0, 0 ... 0, 0, 0]\nclass = Face Mask - Algae", fillcolor="#ffffff"] ;
62 -> 63 ;
64 [label="gini = 0.0\nsamples = 1\nvalue = [0, 0, 0 ... 0, 0, 0]\nclass = Face Mask - Lotus", fillcolor="#39e58c"] ;
63 -> 64 ;
65 [label="rank <= 4.35\ngini = 0.833\nsamples = 6\nvalue = [0, 0, 0 ... 0, 0, 0]\nclass = Face Mask - Algae", fillcolor="#ffffff"] ;
63 -> 65 ;
66 [label="gini = 0.0\nsamples = 1\nvalue = [0, 0, 0 ... 0, 0, 0]\nclass = Face Mask - Green Tea - Mattifying", fillcolor="#39e58c"] ;
65 -> 66 ;
67 [label="rank <= 4.45\ngini = 0.8\nsamples = 5\nvalue = [0, 0, 0 ... 0, 0, 0]\nclass = Face Mask - Algae", fillcolor="#ffffff"] ;
65 -> 67 ;
68 [label="gini = 0.0\nsamples = 1\nvalue = [0, 0, 0 ... 0, 0, 0]\nclass = Face Mask - Pearl - Brightening", fillcolor="#39e58c"] ;
67 -> 68 ;
69 [label="rank <= 4.55\ngini = 0.75\nsamples = 4\nvalue = [0, 0, 0 ... 0, 0, 0]\nclass = Face Mask - Algae", fillcolor="#ffffff"] ;
67 -> 69 ;
70 [label="gini = 0.5\nsamples = 2\nvalue = [0, 0, 0 ... 0, 0, 0]\nclass = Face Mask - Pomegranate", fillcolor="#ffffff"] ;
69 -> 70 ;
71 [label="rank <= 4.65\ngini = 0.5\nsamples = 2\nvalue = [0, 0, 0 ... 0, 0, 0]\nclass = Face Mask - Algae", fillcolor="#ffffff"] ;
69 -> 71 ;
72 [label="gini = 0.0\nsamples = 1\nvalue = [0, 0, 0 ... 0, 0, 0]\nclass = Face Mask - Avocado", fillcolor="#39e589"] ;
71 -> 72 ;
73 [label="gini = 0.0\nsamples = 1\nvalue = [0, 0, 0 ... 0, 0, 0]\nclass = Face Mask - Algae", fillcolor="#39e586"] ;
71 -> 73 ;
74 [label="rank <= 3.35\ngini = 0.998\nsamples = 438\nvalue = [0, 0, 0 ... 0, 0, 0]\nclass = 3 Muslin Cloths", fillcolor="#ffffff"] ;
62 -> 74 ;
75 [label="price <= 50.0\ngini = 0.75\nsamples = 4\nvalue = [0, 0, 0 ... 0, 0, 0]\nclass = Even Better Eyes Dark Circle Corrector", fillcolor="#ffffff"] ;
74 -> 75 ;
76 [label="gini = 0.0\nsamples = 1\nvalue = [0, 0, 0 ... 0, 0, 0]\nclass = Even Better Eyes Dark Circle Corrector", fillcolor="#39e564"] ;
75 -> 76 ;
77 [label="price <= 61.5\ngini = 0.667\nsamples = 3\nvalue = [0, 0, 0 ... 0, 0, 0]\nclass = Power K Eye Rescue®", fillcolor="#ffffff"] ;
75 -> 77 ;
78 [label="gini = 0.0\nsamples = 1\nvalue = [0, 0, 0 ... 0, 0, 0]\nclass = Total Replenishing Eye Cream", fillcolor="#e5396d"] ;
77 -> 78 ;
79 [label="price <= 82.5\ngini = 0.5\nsamples = 2\nvalue = [0, 0, 0 ... 0, 0, 0]\nclass = Power K Eye Rescue®", fillcolor="#ffffff"] ;
77 -> 79 ;
80 [label="gini = 0.0\nsamples = 1\nvalue = [0, 0, 0 ... 0, 0, 0]\nclass = Resilience Lift Firming/Sculpting Eye Creme", fillcolor="#b139e5"] ;
79 -> 80 ;
81 [label="gini = 0.0\nsamples = 1\nvalue = [0, 0, 0 ... 0, 0, 0]\nclass = Power K Eye Rescue®", fillcolor="#7239e5"] ;
79 -> 81 ;
82 [label="price <= 7.5\ngini = 0.998\nsamples = 434\nvalue = [0, 0, 0 ... 0, 0, 0]\nclass = 3 Muslin Cloths", fillcolor="#ffffff"] ;
74 -> 82 ;
83 [label="rank <= 4.3\ngini = 0.9\nsamples = 10\nvalue = [0, 0, 0 ... 0, 0, 0]\nclass = Cleansing & Exfoliating Wipes", fillcolor="#ffffff"] ;
82 -> 83 ;
84 [label="gini = 0.0\nsamples = 1\nvalue = [0, 0, 0 ... 0, 0, 0]\nclass = Exfoliating Wipes - Charcoal - Detoxifying", fillcolor="#39e56d"] ;
83 -> 84 ;
85 [label="rank <= 4.45\ngini = 0.889\nsamples = 9\nvalue = [0, 0, 0 ... 0, 0, 0]\nclass = Cleansing & Exfoliating Wipes", fillcolor="#ffffff"] ;
83 -> 85 ;
86 [label="gini = 0.0\nsamples = 1\nvalue = [0, 0, 0 ... 0, 0, 0]\nclass = Cleansing Wipes - Cucumber - Anti-fatigue", fillcolor="#81e539"] ;
85 -> 86 ;
87 [label="rank <= 4.55\ngini = 0.875\nsamples = 8\nvalue = [0, 0, 0 ... 0, 0, 0]\nclass = Cleansing & Exfoliating Wipes", fillcolor="#ffffff"] ;
85 -> 87 ;
88 [label="gini = 0.0\nsamples = 1\nvalue = [0, 0, 0 ... 0, 0, 0]\nclass = Cleansing & Exfoliating Wipes", fillcolor="#86e539"] ;
87 -> 88 ;
89 [label="rank <= 4.65\ngini = 0.857\nsamples = 7\nvalue = [0, 0, 0 ... 0, 0, 0]\nclass = Cleansing & Exfoliating Wipes - Coconut Water", fillcolor="#ffffff"] ;
87 -> 89 ;
90 [label="gini = 0.5\nsamples = 2\nvalue = [0, 0, 0 ... 0, 0, 0]\nclass = Cleansing & Exfoliating Wipes - Green Tea", fillcolor="#ffffff"] ;
89 -> 90 ;
91 [label="rank <= 4.8\ngini = 0.8\nsamples = 5\nvalue = [0, 0, 0 ... 0, 0, 0]\nclass = Cleansing & Exfoliating Wipes - Coconut Water", fillcolor="#ffffff"] ;
89 -> 91 ;
92 [label="gini = 0.667\nsamples = 3\nvalue = [0, 0, 0 ... 0, 0, 0]\nclass = Cleansing & Exfoliating Wipes - Coconut Water", fillcolor="#ffffff"] ;
91 -> 92 ;
93 [label="rank <= 4.95\ngini = 0.5\nsamples = 2\nvalue = [0, 0, 0 ... 0, 0, 0]\nclass = Cleansing Wipes - Pomegranate - Energizing", fillcolor="#ffffff"] ;
91 -> 93 ;
94 [label="gini = 0.0\nsamples = 1\nvalue = [0, 0, 0 ... 0, 0, 0]\nclass = Exfoilating Wipes - Papaya - Glow", fillcolor="#39e56a"] ;
93 -> 94 ;
95 [label="gini = 0.0\nsamples = 1\nvalue = [0, 0, 0 ... 0, 0, 0]\nclass = Cleansing Wipes - Pomegranate - Energizing", fillcolor="#81e539"] ;
93 -> 95 ;
96 [label="rank <= 3.45\ngini = 0.998\nsamples = 424\nvalue = [0, 0, 0 ... 0, 0, 0]\nclass = 3 Muslin Cloths", fillcolor="#ffffff"] ;
82 -> 96 ;
97 [label="price <= 19.0\ngini = 0.75\nsamples = 4\nvalue = [0, 0, 0 ... 0, 0, 0]\nclass = DD Cream Dermatologically Defining BB Cream Broad Spectrum SPF 30", fillcolor="#ffffff"] ;
96 -> 97 ;
98 [label="gini = 0.0\nsamples = 1\nvalue = [0, 0, 0 ... 0, 0, 0]\nclass = Take The Day Off Makeup Remover For Lids, Lashes & Lips Mini", fillcolor="#e5399d"] ;
97 -> 98 ;
99 [label="price <= 33.5\ngini = 0.667\nsamples = 3\nvalue = [0, 0, 0 ... 0, 0, 0]\nclass = DD Cream Dermatologically Defining BB Cream Broad Spectrum SPF 30", fillcolor="#ffffff"] ;
97 -> 99 ;
100 [label="gini = 0.0\nsamples = 1\nvalue = [0, 0, 0 ... 0, 0, 0]\nclass = No Puffery™ Cooling Roll-On For Puffy Eyes", fillcolor="#3944e5"] ;
99 -> 100 ;
101 [label="price <= 55.5\ngini = 0.5\nsamples = 2\nvalue = [0, 0, 0 ... 0, 0, 0]\nclass = DD Cream Dermatologically Defining BB Cream Broad Spectrum SPF 30", fillcolor="#ffffff"] ;
99 -> 101 ;
102 [label="gini = 0.0\nsamples = 1\nvalue = [0, 0, 0 ... 0, 0, 0]\nclass = DD Cream Dermatologically Defining BB Cream Broad Spectrum SPF 30", fillcolor="#5be539"] ;
101 -> 102 ;
103 [label="gini = 0.0\nsamples = 1\nvalue = [0, 0, 0 ... 0, 0, 0]\nclass = Forever Light Creator Eye Fluid", fillcolor="#39e5ac"] ;
101 -> 103 ;
104 [label="rank <= 3.55\ngini = 0.998\nsamples = 420\nvalue = [0, 0, 0 ... 0, 0, 0]\nclass = 3 Muslin Cloths", fillcolor="#ffffff"] ;
96 -> 104 ;
105 [label="price <= 24.5\ngini = 0.909\nsamples = 11\nvalue = [0, 0, 0 ... 0, 0, 0]\nclass = Advanced Time Zone Age Reversing Line/Wrinkle Eye Creme", fillcolor="#ffffff"] ;
104 -> 105 ;
106 [label="gini = 0.0\nsamples = 1\nvalue = [0, 0, 0 ... 0, 0, 0]\nclass = Egg Mousse Pack", fillcolor="#39e553"] ;
105 -> 106 ;
107 [label="price <= 32.0\ngini = 0.9\nsamples = 10\nvalue = [0, 0, 0 ... 0, 0, 0]\nclass = Advanced Time Zone Age Reversing Line/Wrinkle Eye Creme", fillcolor="#ffffff"] ;
105 -> 107 ;
108 [label="gini = 0.0\nsamples = 1\nvalue = [0, 0, 0 ... 0, 0, 0]\nclass = Charlotte's Magic Cream Mini", fillcolor="#9de539"] ;
107 -> 108 ;
109 [label="price <= 40.0\ngini = 0.889\nsamples = 9\nvalue = [0, 0, 0 ... 0, 0, 0]\nclass = Advanced Time Zone Age Reversing Line/Wrinkle Eye Creme", fillcolor="#ffffff"] ;
107 -> 109 ;
110 [label="gini = 0.0\nsamples = 1\nvalue = [0, 0, 0 ... 0, 0, 0]\nclass = Lotus Caress to Moisturize Eyes", fillcolor="#3995e5"] ;
109 -> 110 ;
111 [label="price <= 49.5\ngini = 0.875\nsamples = 8\nvalue = [0, 0, 0 ... 0, 0, 0]\nclass = Advanced Time Zone Age Reversing Line/Wrinkle Eye Creme", fillcolor="#ffffff"] ;
109 -> 111 ;
112 [label="gini = 0.0\nsamples = 1\nvalue = [0, 0, 0 ... 0, 0, 0]\nclass = Lotus Youth Preserve Eye Cream", fillcolor="#3995e5"] ;
111 -> 112 ;
113 [label="price <= 59.0\ngini = 0.857\nsamples = 7\nvalue = [0, 0, 0 ... 0, 0, 0]\nclass = Advanced Time Zone Age Reversing Line/Wrinkle Eye Creme", fillcolor="#ffffff"] ;
111 -> 113 ;
114 [label="gini = 0.5\nsamples = 2\nvalue = [0, 0, 0 ... 0, 0, 0]\nclass = Multi-Active Day Cream SPF 20 - All Skin Types", fillcolor="#ffffff"] ;
113 -> 114 ;
115 [label="price <= 67.5\ngini = 0.8\nsamples = 5\nvalue = [0, 0, 0 ... 0, 0, 0]\nclass = Advanced Time Zone Age Reversing Line/Wrinkle Eye Creme", fillcolor="#ffffff"] ;
113 -> 115 ;
116 [label="gini = 0.0\nsamples = 1\nvalue = [0, 0, 0 ... 0, 0, 0]\nclass = Advanced Time Zone Age Reversing Line/Wrinkle Eye Creme", fillcolor="#e5b139"] ;
115 -> 116 ;
117 [label="price <= 88.0\ngini = 0.75\nsamples = 4\nvalue = [0, 0, 0 ... 0, 0, 0]\nclass = Belle de Jour Angel Eyes White Lotus Care", fillcolor="#ffffff"] ;
115 -> 117 ;
118 [label="gini = 0.0\nsamples = 1\nvalue = [0, 0, 0 ... 0, 0, 0]\nclass = Belle de Jour Angel Eyes White Lotus Care", fillcolor="#e5dc39"] ;
117 -> 118 ;
119 [label="price <= 122.0\ngini = 0.667\nsamples = 3\nvalue = [0, 0, 0 ... 0, 0, 0]\nclass = Capture Totale Multi-Perfection Eye Treatment", fillcolor="#ffffff"] ;
117 -> 119 ;
120 [label="gini = 0.0\nsamples = 1\nvalue = [0, 0, 0 ... 0, 0, 0]\nclass = Capture Totale Multi-Perfection Eye Treatment", fillcolor="#a6e539"] ;
119 -> 120 ;
121 [label="price <= 197.0\ngini = 0.5\nsamples = 2\nvalue = [0, 0, 0 ... 0, 0, 0]\nclass = IRIS™ Illuminating Eye Massager", fillcolor="#ffffff"] ;
119 -> 121 ;
122 [label="gini = 0.0\nsamples = 1\nvalue = [0, 0, 0 ... 0, 0, 0]\nclass = IRIS™ Illuminating Eye Massager", fillcolor="#39c5e5"] ;
121 -> 122 ;
123 [label="gini = 0.0\nsamples = 1\nvalue = [0, 0, 0 ... 0, 0, 0]\nclass = The Lifting Eye Serum", fillcolor="#e5398c"] ;
121 -> 123 ;
124 [label="price <= 9.0\ngini = 0.998\nsamples = 409\nvalue = [0, 0, 0 ... 0, 0, 0]\nclass = 3 Muslin Cloths", fillcolor="#ffffff"] ;
104 -> 124 ;
125 [label="rank <= 4.4\ngini = 0.5\nsamples = 2\nvalue = [0, 0, 0 ... 0, 0, 0]\nclass = Blotting Papers", fillcolor="#ffffff"] ;
124 -> 125 ;
126 [label="gini = 0.0\nsamples = 1\nvalue = [0, 0, 0 ... 0, 0, 0]\nclass = Blotting Papers", fillcolor="#cbe539"] ;
125 -> 126 ;
127 [label="gini = 0.0\nsamples = 1\nvalue = [0, 0, 0 ... 0, 0, 0]\nclass = Mattifying Blotting Films", fillcolor="#3978e5"] ;
125 -> 127 ;
128 [label="rank <= 3.65\ngini = 0.998\nsamples = 407\nvalue = [0, 0, 0 ... 0, 0, 0]\nclass = 3 Muslin Cloths", fillcolor="#ffffff"] ;
124 -> 128 ;
129 [label="price <= 16.0\ngini = 0.923\nsamples = 13\nvalue = [0, 0, 0 ... 0, 0, 0]\nclass = Abeille Royale Daily Repair Serum", fillcolor="#ffffff"] ;
128 -> 129 ;
130 [label="gini = 0.0\nsamples = 1\nvalue = [0, 0, 0 ... 0, 0, 0]\nclass = Take The Day Off Micellar Cleansing Towelettes for Face & Eyes", fillcolor="#e5399d"] ;
129 -> 130 ;
131 [label="price <= 22.0\ngini = 0.917\nsamples = 12\nvalue = [0, 0, 0 ... 0, 0, 0]\nclass = Abeille Royale Daily Repair Serum", fillcolor="#ffffff"] ;
129 -> 131 ;
132 [label="gini = 0.0\nsamples = 1\nvalue = [0, 0, 0 ... 0, 0, 0]\nclass = Acne Solutions Clearing Concealer", fillcolor="#e5a039"] ;
131 -> 132 ;
133 [label="price <= 30.5\ngini = 0.909\nsamples = 11\nvalue = [0, 0, 0 ... 0, 0, 0]\nclass = Abeille Royale Daily Repair Serum", fillcolor="#ffffff"] ;
131 -> 133 ;
134 [label="gini = 0.0\nsamples = 1\nvalue = [0, 0, 0 ... 0, 0, 0]\nclass = Super-Cool De-Puffing Eye Balm", fillcolor="#e539ac"] ;
133 -> 134 ;
135 [label="price <= 36.5\ngini = 0.9\nsamples = 10\nvalue = [0, 0, 0 ... 0, 0, 0]\nclass = Abeille Royale Daily Repair Serum", fillcolor="#ffffff"] ;
133 -> 135 ;
136 [label="gini = 0.0\nsamples = 1\nvalue = [0, 0, 0 ... 0, 0, 0]\nclass = Your Skin But Better™ CC+ Airbrush Perfecting Powder™ with SPF 50+", fillcolor="#e57539"] ;
135 -> 136 ;
137 [label="price <= 40.0\ngini = 0.889\nsamples = 9\nvalue = [0, 0, 0 ... 0, 0, 0]\nclass = Abeille Royale Daily Repair Serum", fillcolor="#ffffff"] ;
135 -> 137 ;
138 [label="gini = 0.5\nsamples = 2\nvalue = [0, 0, 0 ... 0, 0, 0]\nclass = Instant FIRMx Eye™", fillcolor="#ffffff"] ;
137 -> 138 ;
139 [label="price <= 43.5\ngini = 0.857\nsamples = 7\nvalue = [0, 0, 0 ... 0, 0, 0]\nclass = Abeille Royale Daily Repair Serum", fillcolor="#ffffff"] ;
137 -> 139 ;
140 [label="gini = 0.0\nsamples = 1\nvalue = [0, 0, 0 ... 0, 0, 0]\nclass = Keep Young and Beautiful Anti-Ageing Eye Cream", fillcolor="#39a0e5"] ;
139 -> 140 ;
141 [label="price <= 46.5\ngini = 0.833\nsamples = 6\nvalue = [0, 0, 0 ... 0, 0, 0]\nclass = Abeille Royale Daily Repair Serum", fillcolor="#ffffff"] ;
139 -> 141 ;
142 [label="gini = 0.0\nsamples = 1\nvalue = [0, 0, 0 ... 0, 0, 0]\nclass = Targeted Deep Wrinkle Minimizer", fillcolor="#e5399a"] ;
141 -> 142 ;
143 [label="price <= 54.0\ngini = 0.8\nsamples = 5\nvalue = [0, 0, 0 ... 0, 0, 0]\nclass = Abeille Royale Daily Repair Serum", fillcolor="#ffffff"] ;
141 -> 143 ;
144 [label="gini = 0.0\nsamples = 1\nvalue = [0, 0, 0 ... 0, 0, 0]\nclass = Daily Deflector™ Waterlight Broad Spectrum SPF 50+ PA+++ Anti-Aging Sunscreen", fillcolor="#56e539"] ;
143 -> 144 ;
145 [label="price <= 67.5\ngini = 0.75\nsamples = 4\nvalue = [0, 0, 0 ... 0, 0, 0]\nclass = Abeille Royale Daily Repair Serum", fillcolor="#ffffff"] ;
143 -> 145 ;
146 [label="gini = 0.0\nsamples = 1\nvalue = [0, 0, 0 ... 0, 0, 0]\nclass = White Lucent Anti-Dark Circles Eye Cream", fillcolor="#e55e39"] ;
145 -> 146 ;
147 [label="price <= 112.5\ngini = 0.667\nsamples = 3\nvalue = [0, 0, 0 ... 0, 0, 0]\nclass = Abeille Royale Daily Repair Serum", fillcolor="#ffffff"] ;
145 -> 147 ;
148 [label="gini = 0.0\nsamples = 1\nvalue = [0, 0, 0 ... 0, 0, 0]\nclass = Age Arrest Eye Cream", fillcolor="#e5b739"] ;
147 -> 148 ;
149 [label="price <= 182.5\ngini = 0.5\nsamples = 2\nvalue = [0, 0, 0 ... 0, 0, 0]\nclass = Abeille Royale Daily Repair Serum", fillcolor="#ffffff"] ;
147 -> 149 ;
150 [label="gini = 0.0\nsamples = 1\nvalue = [0, 0, 0 ... 0, 0, 0]\nclass = Abeille Royale Daily Repair Serum", fillcolor="#e59839"] ;
149 -> 150 ;
151 [label="gini = 0.0\nsamples = 1\nvalue = [0, 0, 0 ... 0, 0, 0]\nclass = The Eye Concentrate", fillcolor="#e5398f"] ;
149 -> 151 ;
152 [label="rank <= 3.75\ngini = 0.997\nsamples = 394\nvalue = [0, 0, 0 ... 0, 0, 0]\nclass = 3 Muslin Cloths", fillcolor="#ffffff"] ;
128 -> 152 ;
153 [label="price <= 16.0\ngini = 0.938\nsamples = 16\nvalue = [0, 0, 0 ... 0, 0, 0]\nclass = ABSOLUE PREMIUM Bx - Absolute Replenishing Eye Cream", fillcolor="#ffffff"] ;
152 -> 153 ;
154 [label="gini = 0.0\nsamples = 1\nvalue = [0, 0, 0 ... 0, 0, 0]\nclass = Luminous Deep Hydration Revitalizing Eye Mask", fillcolor="#398ce5"] ;
153 -> 154 ;
155 [label="price <= 25.0\ngini = 0.933\nsamples = 15\nvalue = [0, 0, 0 ... 0, 0, 0]\nclass = ABSOLUE PREMIUM Bx - Absolute Replenishing Eye Cream", fillcolor="#ffffff"] ;
153 -> 155 ;
156 [label="gini = 0.0\nsamples = 1\nvalue = [0, 0, 0 ... 0, 0, 0]\nclass = Polishing Mask", fillcolor="#6439e5"] ;
155 -> 156 ;
157 [label="price <= 31.0\ngini = 0.929\nsamples = 14\nvalue = [0, 0, 0 ... 0, 0, 0]\nclass = ABSOLUE PREMIUM Bx - Absolute Replenishing Eye Cream", fillcolor="#ffffff"] ;
155 -> 157 ;
158 [label="gini = 0.5\nsamples = 2\nvalue = [0, 0, 0 ... 0, 0, 0]\nclass = Oily Problem Skin Instant Mineral Powder SPF 30", fillcolor="#ffffff"] ;
157 -> 158 ;
159 [label="price <= 36.0\ngini = 0.917\nsamples = 12\nvalue = [0, 0, 0 ... 0, 0, 0]\nclass = ABSOLUE PREMIUM Bx - Absolute Replenishing Eye Cream", fillcolor="#ffffff"] ;
157 -> 159 ;
160 [label="gini = 0.0\nsamples = 1\nvalue = [0, 0, 0 ... 0, 0, 0]\nclass = Radiance Drops - Rainforest of the Sea™ Collection", fillcolor="#9839e5"] ;
159 -> 160 ;
161 [label="price <= 41.0\ngini = 0.909\nsamples = 11\nvalue = [0, 0, 0 ... 0, 0, 0]\nclass = ABSOLUE PREMIUM Bx - Absolute Replenishing Eye Cream", fillcolor="#ffffff"] ;
159 -> 161 ;
162 [label="gini = 0.0\nsamples = 1\nvalue = [0, 0, 0 ... 0, 0, 0]\nclass = Balancing Moisturizer Broad Spectrum SPF 15 PA++", fillcolor="#e5d739"] ;
161 -> 162 ;
163 [label="price <= 45.0\ngini = 0.9\nsamples = 10\nvalue = [0, 0, 0 ... 0, 0, 0]\nclass = ABSOLUE PREMIUM Bx - Absolute Replenishing Eye Cream", fillcolor="#ffffff"] ;
161 -> 163 ;
164 [label="gini = 0.0\nsamples = 1\nvalue = [0, 0, 0 ... 0, 0, 0]\nclass = DayWear BB Anti-Oxidant Beauty Benefit Crème SPF 35", fillcolor="#50e539"] ;
163 -> 164 ;
165 [label="price <= 49.0\ngini = 0.889\nsamples = 9\nvalue = [0, 0, 0 ... 0, 0, 0]\nclass = ABSOLUE PREMIUM Bx - Absolute Replenishing Eye Cream", fillcolor="#ffffff"] ;
163 -> 165 ;
166 [label="gini = 0.0\nsamples = 1\nvalue = [0, 0, 0 ... 0, 0, 0]\nclass = Instant Firmx™", fillcolor="#39b7e5"] ;
165 -> 166 ;
167 [label="price <= 50.5\ngini = 0.875\nsamples = 8\nvalue = [0, 0, 0 ... 0, 0, 0]\nclass = ABSOLUE PREMIUM Bx - Absolute Replenishing Eye Cream", fillcolor="#ffffff"] ;
165 -> 167 ;
168 [label="gini = 0.5\nsamples = 2\nvalue = [0, 0, 0 ... 0, 0, 0]\nclass = Clinique Smart Custom-Repair Eye Treatment", fillcolor="#ffffff"] ;
167 -> 168 ;
169 [label="price <= 58.0\ngini = 0.833\nsamples = 6\nvalue = [0, 0, 0 ... 0, 0, 0]\nclass = ABSOLUE PREMIUM Bx - Absolute Replenishing Eye Cream", fillcolor="#ffffff"] ;
167 -> 169 ;
170 [label="gini = 0.0\nsamples = 1\nvalue = [0, 0, 0 ... 0, 0, 0]\nclass = Renewed Hope In A Jar Eye", fillcolor="#a339e5"] ;
169 -> 170 ;
171 [label="price <= 69.5\ngini = 0.8\nsamples = 5\nvalue = [0, 0, 0 ... 0, 0, 0]\nclass = ABSOLUE PREMIUM Bx - Absolute Replenishing Eye Cream", fillcolor="#ffffff"] ;
169 -> 171 ;
172 [label="gini = 0.0\nsamples = 1\nvalue = [0, 0, 0 ... 0, 0, 0]\nclass = Post-Acne Spot Lightening Gel", fillcolor="#6f39e5"] ;
171 -> 172 ;
173 [label="price <= 76.5\ngini = 0.75\nsamples = 4\nvalue = [0, 0, 0 ... 0, 0, 0]\nclass = ABSOLUE PREMIUM Bx - Absolute Replenishing Eye Cream", fillcolor="#ffffff"] ;
171 -> 173 ;
174 [label="gini = 0.0\nsamples = 1\nvalue = [0, 0, 0 ... 0, 0, 0]\nclass = GENIUS Ultimate Anti-Aging Eye Cream", fillcolor="#39e5b7"] ;
173 -> 174 ;
175 [label="price <= 94.5\ngini = 0.667\nsamples = 3\nvalue = [0, 0, 0 ... 0, 0, 0]\nclass = ABSOLUE PREMIUM Bx - Absolute Replenishing Eye Cream", fillcolor="#ffffff"] ;
173 -> 175 ;
176 [label="gini = 0.0\nsamples = 1\nvalue = [0, 0, 0 ... 0, 0, 0]\nclass = Divine Eyes", fillcolor="#39e539"] ;
175 -> 176 ;
177 [label="price <= 130.0\ngini = 0.5\nsamples = 2\nvalue = [0, 0, 0 ... 0, 0, 0]\nclass = ABSOLUE PREMIUM Bx - Absolute Replenishing Eye Cream", fillcolor="#ffffff"] ;
175 -> 177 ;
178 [label="gini = 0.0\nsamples = 1\nvalue = [0, 0, 0 ... 0, 0, 0]\nclass = ABSOLUE PREMIUM Bx - Absolute Replenishing Eye Cream", fillcolor="#e59539"] ;
177 -> 178 ;
179 [label="gini = 0.0\nsamples = 1\nvalue = [0, 0, 0 ... 0, 0, 0]\nclass = Un-Wrinkle® Turbo Face Serum", fillcolor="#e53944"] ;
177 -> 179 ;
180 [label="rank <= 3.85\ngini = 0.997\nsamples = 378\nvalue = [0, 0, 0 ... 0, 0, 0]\nclass = 3 Muslin Cloths", fillcolor="#ffffff"] ;
152 -> 180 ;
181 [label="price <= 21.5\ngini = 0.957\nsamples = 23\nvalue = [0, 0, 0 ... 0, 0, 0]\nclass = Advanced Time Zone SPF 15- Normal/Combination Skin", fillcolor="#ffffff"] ;
180 -> 181 ;
182 [label="gini = 0.0\nsamples = 1\nvalue = [0, 0, 0 ... 0, 0, 0]\nclass = Clear Complexion Willow Bark Spot Treatment", fillcolor="#7ee539"] ;
181 -> 182 ;
183 [label="price <= 28.5\ngini = 0.955\nsamples = 22\nvalue = [0, 0, 0 ... 0, 0, 0]\nclass = Advanced Time Zone SPF 15- Normal/Combination Skin", fillcolor="#ffffff"] ;
181 -> 183 ;
184 [label="gini = 0.0\nsamples = 1\nvalue = [0, 0, 0 ... 0, 0, 0]\nclass = Wing Man™ Dark Circle Remedy Supplement", fillcolor="#e56739"] ;
183 -> 184 ;
185 [label="price <= 34.0\ngini = 0.952\nsamples = 21\nvalue = [0, 0, 0 ... 0, 0, 0]\nclass = Advanced Time Zone SPF 15- Normal/Combination Skin", fillcolor="#ffffff"] ;
183 -> 185 ;
186 [label="gini = 0.5\nsamples = 2\nvalue = [0, 0, 0 ... 0, 0, 0]\nclass = All About Eyes Serum De-Puffing Eye Massage", fillcolor="#ffffff"] ;
185 -> 186 ;
187 [label="price <= 37.0\ngini = 0.947\nsamples = 19\nvalue = [0, 0, 0 ... 0, 0, 0]\nclass = Advanced Time Zone SPF 15- Normal/Combination Skin", fillcolor="#ffffff"] ;
185 -> 187 ;
188 [label="gini = 0.0\nsamples = 1\nvalue = [0, 0, 0 ... 0, 0, 0]\nclass = Sunscreen Cream High Protection SPF 30", fillcolor="#e539b4"] ;
187 -> 188 ;
189 [label="price <= 38.5\ngini = 0.944\nsamples = 18\nvalue = [0, 0, 0 ... 0, 0, 0]\nclass = Advanced Time Zone SPF 15- Normal/Combination Skin", fillcolor="#ffffff"] ;
187 -> 189 ;
190 [label="gini = 0.5\nsamples = 2\nvalue = [0, 0, 0 ... 0, 0, 0]\nclass = REVEAL Concentrated Color Correcting Drops", fillcolor="#ffffff"] ;
189 -> 190 ;
191 [label="price <= 39.5\ngini = 0.938\nsamples = 16\nvalue = [0, 0, 0 ... 0, 0, 0]\nclass = Advanced Time Zone SPF 15- Normal/Combination Skin", fillcolor="#ffffff"] ;
189 -> 191 ;
192 [label="gini = 0.5\nsamples = 2\nvalue = [0, 0, 0 ... 0, 0, 0]\nclass = Moisture Surge CC Cream Hydrating Colour Corrector Broad Spectrum SPF 30", fillcolor="#ffffff"] ;
191 -> 192 ;
193 [label="price <= 40.5\ngini = 0.929\nsamples = 14\nvalue = [0, 0, 0 ... 0, 0, 0]\nclass = Advanced Time Zone SPF 15- Normal/Combination Skin", fillcolor="#ffffff"] ;
191 -> 193 ;
194 [label="gini = 0.0\nsamples = 1\nvalue = [0, 0, 0 ... 0, 0, 0]\nclass = Ibuki Eye Correcting Cream", fillcolor="#39c3e5"] ;
193 -> 194 ;
195 [label="price <= 41.5\ngini = 0.923\nsamples = 13\nvalue = [0, 0, 0 ... 0, 0, 0]\nclass = Advanced Time Zone SPF 15- Normal/Combination Skin", fillcolor="#ffffff"] ;
193 -> 195 ;
196 [label="gini = 0.0\nsamples = 1\nvalue = [0, 0, 0 ... 0, 0, 0]\nclass = Eye Contour Gel", fillcolor="#39e575"] ;
195 -> 196 ;
197 [label="price <= 45.0\ngini = 0.917\nsamples = 12\nvalue = [0, 0, 0 ... 0, 0, 0]\nclass = Advanced Time Zone SPF 15- Normal/Combination Skin", fillcolor="#ffffff"] ;
195 -> 197 ;
198 [label="gini = 0.0\nsamples = 1\nvalue = [0, 0, 0 ... 0, 0, 0]\nclass = Dark Spot Sun Defense Broad Spectrum SPF 50", fillcolor="#53e539"] ;
197 -> 198 ;
199 [label="price <= 48.5\ngini = 0.909\nsamples = 11\nvalue = [0, 0, 0 ... 0, 0, 0]\nclass = Advanced Time Zone SPF 15- Normal/Combination Skin", fillcolor="#ffffff"] ;
197 -> 199 ;
200 [label="gini = 0.0\nsamples = 1\nvalue = [0, 0, 0 ... 0, 0, 0]\nclass = Super Multi-Corrective Eye-Opening Serum", fillcolor="#e539ae"] ;
199 -> 200 ;
201 [label="price <= 51.5\ngini = 0.9\nsamples = 10\nvalue = [0, 0, 0 ... 0, 0, 0]\nclass = Advanced Time Zone SPF 15- Normal/Combination Skin", fillcolor="#ffffff"] ;
199 -> 201 ;
202 [label="gini = 0.0\nsamples = 1\nvalue = [0, 0, 0 ... 0, 0, 0]\nclass = Plantscription™ Anti-Aging Power Eye Cream", fillcolor="#6139e5"] ;
201 -> 202 ;
203 [label="price <= 55.0\ngini = 0.889\nsamples = 9\nvalue = [0, 0, 0 ... 0, 0, 0]\nclass = Advanced Time Zone SPF 15- Normal/Combination Skin", fillcolor="#ffffff"] ;
201 -> 203 ;
204 [label="gini = 0.0\nsamples = 1\nvalue = [0, 0, 0 ... 0, 0, 0]\nclass = Daywear Advanced Multi-Protection Anti-Oxidant Creme Oil-Free Broad Spectrum SPF 25", fillcolor="#4ae539"] ;
203 -> 204 ;
205 [label="price <= 57.5\ngini = 0.875\nsamples = 8\nvalue = [0, 0, 0 ... 0, 0, 0]\nclass = Advanced Time Zone SPF 15- Normal/Combination Skin", fillcolor="#ffffff"] ;
203 -> 205 ;
206 [label="gini = 0.0\nsamples = 1\nvalue = [0, 0, 0 ... 0, 0, 0]\nclass = Sculptwear Lift and Contour Serum for Face and Neck", fillcolor="#df39e5"] ;
205 -> 206 ;
207 [label="price <= 61.5\ngini = 0.857\nsamples = 7\nvalue = [0, 0, 0 ... 0, 0, 0]\nclass = Advanced Time Zone SPF 15- Normal/Combination Skin", fillcolor="#ffffff"] ;
205 -> 207 ;
208 [label="gini = 0.0\nsamples = 1\nvalue = [0, 0, 0 ... 0, 0, 0]\nclass = Dr. Andrew Weil For Origins™ Mega-Bright Dark Spot Correcting Night Mask", fillcolor="#39e541"] ;
207 -> 208 ;
209 [label="price <= 66.0\ngini = 0.833\nsamples = 6\nvalue = [0, 0, 0 ... 0, 0, 0]\nclass = Advanced Time Zone SPF 15- Normal/Combination Skin", fillcolor="#ffffff"] ;
207 -> 209 ;
210 [label="gini = 0.0\nsamples = 1\nvalue = [0, 0, 0 ... 0, 0, 0]\nclass = Repairwear Uplifting Firming Cream Broad Spectrum SPF 15", fillcolor="#ae39e5"] ;
209 -> 210 ;
211 [label="price <= 71.5\ngini = 0.8\nsamples = 5\nvalue = [0, 0, 0 ... 0, 0, 0]\nclass = Advanced Time Zone SPF 15- Normal/Combination Skin", fillcolor="#ffffff"] ;
209 -> 211 ;
212 [label="gini = 0.0\nsamples = 1\nvalue = [0, 0, 0 ... 0, 0, 0]\nclass = Kakadu C™ Eye Soufflé", fillcolor="#39a6e5"] ;
211 -> 212 ;
213 [label="price <= 85.0\ngini = 0.75\nsamples = 4\nvalue = [0, 0, 0 ... 0, 0, 0]\nclass = Advanced Time Zone SPF 15- Normal/Combination Skin", fillcolor="#ffffff"] ;
211 -> 213 ;
214 [label="gini = 0.0\nsamples = 1\nvalue = [0, 0, 0 ... 0, 0, 0]\nclass = Advanced Time Zone SPF 15- Normal/Combination Skin", fillcolor="#e5b439"] ;
213 -> 214 ;
215 [label="price <= 97.5\ngini = 0.667\nsamples = 3\nvalue = [0, 0, 0 ... 0, 0, 0]\nclass = Luminous Deep Hydration Firming Serum", fillcolor="#ffffff"] ;
213 -> 215 ;
216 [label="gini = 0.0\nsamples = 1\nvalue = [0, 0, 0 ... 0, 0, 0]\nclass = Luminous Deep Hydration Firming Serum", fillcolor="#398fe5"] ;
215 -> 216 ;
217 [label="price <= 122.5\ngini = 0.5\nsamples = 2\nvalue = [0, 0, 0 ... 0, 0, 0]\nclass = Reviving Eye Cream", fillcolor="#ffffff"] ;
215 -> 217 ;
218 [label="gini = 0.0\nsamples = 1\nvalue = [0, 0, 0 ... 0, 0, 0]\nclass = Un-Wrinkle Eye", fillcolor="#e53947"] ;
217 -> 218 ;
219 [label="gini = 0.0\nsamples = 1\nvalue = [0, 0, 0 ... 0, 0, 0]\nclass = Reviving Eye Cream", fillcolor="#c339e5"] ;
217 -> 219 ;
220 [label="rank <= 3.95\ngini = 0.997\nsamples = 355\nvalue = [0, 0, 0 ... 0, 0, 0]\nclass = 3 Muslin Cloths", fillcolor="#ffffff"] ;
180 -> 220 ;
221 [label="price <= 15.5\ngini = 0.955\nsamples = 22\nvalue = [0, 0, 0 ... 0, 0, 0]\nclass = 3-in-1 Extractor", fillcolor="#ffffff"] ;
220 -> 221 ;
222 [label="gini = 0.0\nsamples = 1\nvalue = [0, 0, 0 ... 0, 0, 0]\nclass = Purity Made Simple One-Step Facial Cleansing Cloths", fillcolor="#8f39e5"] ;
221 -> 222 ;
223 [label="price <= 19.5\ngini = 0.952\nsamples = 21\nvalue = [0, 0, 0 ... 0, 0, 0]\nclass = 3-in-1 Extractor", fillcolor="#ffffff"] ;
221 -> 223 ;
224 [label="gini = 0.0\nsamples = 1\nvalue = [0, 0, 0 ... 0, 0, 0]\nclass = Invisimatte Blotting Paper", fillcolor="#39aee5"] ;
223 -> 224 ;
225 [label="price <= 24.0\ngini = 0.95\nsamples = 20\nvalue = [0, 0, 0 ... 0, 0, 0]\nclass = 3-in-1 Extractor", fillcolor="#ffffff"] ;
223 -> 225 ;
226 [label="gini = 0.0\nsamples = 1\nvalue = [0, 0, 0 ... 0, 0, 0]\nclass = 3-in-1 Extractor", fillcolor="#e58939"] ;
225 -> 226 ;
227 [label="price <= 27.5\ngini = 0.947\nsamples = 19\nvalue = [0, 0, 0 ... 0, 0, 0]\nclass = 4-in-1 Setting Mist - Rainforest of the Sea™ Collection", fillcolor="#ffffff"] ;
225 -> 227 ;
228 [label="gini = 0.0\nsamples = 1\nvalue = [0, 0, 0 ... 0, 0, 0]\nclass = 4-in-1 Setting Mist - Rainforest of the Sea™ Collection", fillcolor="#e58c39"] ;
227 -> 228 ;
229 [label="price <= 32.0\ngini = 0.944\nsamples = 18\nvalue = [0, 0, 0 ... 0, 0, 0]\nclass = Age Defense BB Cream Broad Spectrum SPF 30", fillcolor="#ffffff"] ;
227 -> 229 ;
230 [label="gini = 0.0\nsamples = 1\nvalue = [0, 0, 0 ... 0, 0, 0]\nclass = COMPLEXION RESCUE™ Tinted Moisturizer Broad Spectrum SPF 30", fillcolor="#b1e539"] ;
229 -> 230 ;
231 [label="price <= 35.0\ngini = 0.941\nsamples = 17\nvalue = [0, 0, 0 ... 0, 0, 0]\nclass = Age Defense BB Cream Broad Spectrum SPF 30", fillcolor="#ffffff"] ;
229 -> 231 ;
232 [label="gini = 0.0\nsamples = 1\nvalue = [0, 0, 0 ... 0, 0, 0]\nclass = First Aid Transforming Peel Off Mask", fillcolor="#39e5a3"] ;
231 -> 232 ;
233 [label="price <= 37.5\ngini = 0.938\nsamples = 16\nvalue = [0, 0, 0 ... 0, 0, 0]\nclass = Age Defense BB Cream Broad Spectrum SPF 30", fillcolor="#ffffff"] ;
231 -> 233 ;
234 [label="gini = 0.0\nsamples = 1\nvalue = [0, 0, 0 ... 0, 0, 0]\nclass = Kakadu C™ Brightening Daily Cleanser with Vitamins C, A & AHAs", fillcolor="#39a6e5"] ;
233 -> 234 ;
235 [label="price <= 41.0\ngini = 0.933\nsamples = 15\nvalue = [0, 0, 0 ... 0, 0, 0]\nclass = Age Defense BB Cream Broad Spectrum SPF 30", fillcolor="#ffffff"] ;
233 -> 235 ;
236 [label="gini = 0.0\nsamples = 1\nvalue = [0, 0, 0 ... 0, 0, 0]\nclass = Age Defense BB Cream Broad Spectrum SPF 30", fillcolor="#e5b739"] ;
235 -> 236 ;
237 [label="price <= 44.0\ngini = 0.929\nsamples = 14\nvalue = [0, 0, 0 ... 0, 0, 0]\nclass = Bio-Performance LiftDynamic Serum", fillcolor="#ffffff"] ;
235 -> 237 ;
238 [label="gini = 0.0\nsamples = 1\nvalue = [0, 0, 0 ... 0, 0, 0]\nclass = Sunscreen Multi-Protection Broad Spectrum SPF 50", fillcolor="#e539b4"] ;
237 -> 238 ;
239 [label="price <= 45.5\ngini = 0.923\nsamples = 13\nvalue = [0, 0, 0 ... 0, 0, 0]\nclass = Bio-Performance LiftDynamic Serum", fillcolor="#ffffff"] ;
237 -> 239 ;
240 [label="gini = 0.5\nsamples = 2\nvalue = [0, 0, 0 ... 0, 0, 0]\nclass = Ibuki Protective Moisturizer Broad Spectrum SPF 18", fillcolor="#ffffff"] ;
239 -> 240 ;
241 [label="price <= 47.0\ngini = 0.909\nsamples = 11\nvalue = [0, 0, 0 ... 0, 0, 0]\nclass = Bio-Performance LiftDynamic Serum", fillcolor="#ffffff"] ;
239 -> 241 ;
242 [label="gini = 0.0\nsamples = 1\nvalue = [0, 0, 0 ... 0, 0, 0]\nclass = Ice-Cold Eye Cream", fillcolor="#39c0e5"] ;
241 -> 242 ;
243 [label="price <= 51.0\ngini = 0.9\nsamples = 10\nvalue = [0, 0, 0 ... 0, 0, 0]\nclass = Bio-Performance LiftDynamic Serum", fillcolor="#ffffff"] ;
241 -> 243 ;
244 [label="gini = 0.5\nsamples = 2\nvalue = [0, 0, 0 ... 0, 0, 0]\nclass = Daily Deflector™ Moisturizer Broad Spectrum SPF 50+", fillcolor="#ffffff"] ;
243 -> 244 ;
245 [label="price <= 59.5\ngini = 0.875\nsamples = 8\nvalue = [0, 0, 0 ... 0, 0, 0]\nclass = Bio-Performance LiftDynamic Serum", fillcolor="#ffffff"] ;
243 -> 245 ;
246 [label="gini = 0.0\nsamples = 1\nvalue = [0, 0, 0 ... 0, 0, 0]\nclass = Unicorn Essence Antioxidant Primer Serum", fillcolor="#e53944"] ;
245 -> 246 ;
247 [label="price <= 75.0\ngini = 0.857\nsamples = 7\nvalue = [0, 0, 0 ... 0, 0, 0]\nclass = Bio-Performance LiftDynamic Serum", fillcolor="#ffffff"] ;
245 -> 247 ;
248 [label="gini = 0.0\nsamples = 1\nvalue = [0, 0, 0 ... 0, 0, 0]\nclass = Photo Dynamic Therapy Energizing Eye Renewal Cream", fillcolor="#5b39e5"] ;
247 -> 248 ;
249 [label="price <= 91.5\ngini = 0.833\nsamples = 6\nvalue = [0, 0, 0 ... 0, 0, 0]\nclass = Bio-Performance LiftDynamic Serum", fillcolor="#ffffff"] ;
247 -> 249 ;
250 [label="gini = 0.0\nsamples = 1\nvalue = [0, 0, 0 ... 0, 0, 0]\nclass = Photo Dynamic Therapy® 3–in–1 Facial Lotion With Broad Spectrum SPF 30", fillcolor="#5b39e5"] ;
249 -> 250 ;
251 [label="price <= 104.0\ngini = 0.8\nsamples = 5\nvalue = [0, 0, 0 ... 0, 0, 0]\nclass = Bio-Performance LiftDynamic Serum", fillcolor="#ffffff"] ;
249 -> 251 ;
252 [label="gini = 0.5\nsamples = 2\nvalue = [0, 0, 0 ... 0, 0, 0]\nclass = Bio-Performance LiftDynamic Serum", fillcolor="#ffffff"] ;
251 -> 252 ;
253 [label="price <= 117.5\ngini = 0.667\nsamples = 3\nvalue = [0, 0, 0 ... 0, 0, 0]\nclass = Immortelle Divine Cream", fillcolor="#ffffff"] ;
251 -> 253 ;
254 [label="gini = 0.0\nsamples = 1\nvalue = [0, 0, 0 ... 0, 0, 0]\nclass = Immortelle Divine Cream", fillcolor="#39bde5"] ;
253 -> 254 ;
255 [label="price <= 247.5\ngini = 0.5\nsamples = 2\nvalue = [0, 0, 0 ... 0, 0, 0]\nclass = Line Release Under Eye Repair Cream", fillcolor="#ffffff"] ;
253 -> 255 ;
256 [label="gini = 0.0\nsamples = 1\nvalue = [0, 0, 0 ... 0, 0, 0]\nclass = Line Release Under Eye Repair Cream", fillcolor="#399ae5"] ;
255 -> 256 ;
257 [label="gini = 0.0\nsamples = 1\nvalue = [0, 0, 0 ... 0, 0, 0]\nclass = The Concentrate", fillcolor="#e53992"] ;
255 -> 257 ;
258 [label="rank <= 4.05\ngini = 0.997\nsamples = 333\nvalue = [0, 0, 0 ... 0, 0, 0]\nclass = 3 Muslin Cloths", fillcolor="#ffffff"] ;
220 -> 258 ;
259 [label="price <= 24.5\ngini = 0.967\nsamples = 30\nvalue = [0, 0, 0 ... 0, 0, 0]\nclass = Acne Solutions All-Over Clearing Treatment Oil-Free", fillcolor="#ffffff"] ;
258 -> 259 ;
260 [label="gini = 0.5\nsamples = 2\nvalue = [0, 0, 0 ... 0, 0, 0]\nclass = Acne Solutions All-Over Clearing Treatment Oil-Free", fillcolor="#ffffff"] ;
259 -> 260 ;
261 [label="price <= 26.5\ngini = 0.964\nsamples = 28\nvalue = [0, 0, 0 ... 0, 0, 0]\nclass = Acne Solutions Clear Skin System Starter Kit", fillcolor="#ffffff"] ;
259 -> 261 ;
262 [label="gini = 0.0\nsamples = 1\nvalue = [0, 0, 0 ... 0, 0, 0]\nclass = Daily Cleanse™ Clear Skin and Breakout Supplement", fillcolor="#58e539"] ;
261 -> 262 ;
263 [label="price <= 29.0\ngini = 0.963\nsamples = 27\nvalue = [0, 0, 0 ... 0, 0, 0]\nclass = Acne Solutions Clear Skin System Starter Kit", fillcolor="#ffffff"] ;
261 -> 263 ;
264 [label="gini = 0.0\nsamples = 1\nvalue = [0, 0, 0 ... 0, 0, 0]\nclass = Acne Solutions Clear Skin System Starter Kit", fillcolor="#e5a039"] ;
263 -> 264 ;
265 [label="price <= 33.0\ngini = 0.962\nsamples = 26\nvalue = [0, 0, 0 ... 0, 0, 0]\nclass = Advanced Acne & Wrinkle Reducer", fillcolor="#ffffff"] ;
263 -> 265 ;
266 [label="gini = 0.0\nsamples = 1\nvalue = [0, 0, 0 ... 0, 0, 0]\nclass = Express Beauty Mask With Ginkgo Biloba", fillcolor="#39e56f"] ;
265 -> 266 ;
267 [label="price <= 37.0\ngini = 0.96\nsamples = 25\nvalue = [0, 0, 0 ... 0, 0, 0]\nclass = Advanced Acne & Wrinkle Reducer", fillcolor="#ffffff"] ;
265 -> 267 ;
268 [label="gini = 0.0\nsamples = 1\nvalue = [0, 0, 0 ... 0, 0, 0]\nclass = Argan Daily Moisturizer Tinted SPF 47 Protect + Perfect", fillcolor="#e5c839"] ;
267 -> 268 ;
269 [label="price <= 39.0\ngini = 0.958\nsamples = 24\nvalue = [0, 0, 0 ... 0, 0, 0]\nclass = Advanced Acne & Wrinkle Reducer", fillcolor="#ffffff"] ;
267 -> 269 ;
270 [label="gini = 0.0\nsamples = 1\nvalue = [0, 0, 0 ... 0, 0, 0]\nclass = Clarimatte™ Invisible Pores Detox Mask", fillcolor="#8ce539"] ;
269 -> 270 ;
271 [label="price <= 41.0\ngini = 0.957\nsamples = 23\nvalue = [0, 0, 0 ... 0, 0, 0]\nclass = Advanced Acne & Wrinkle Reducer", fillcolor="#ffffff"] ;
269 -> 271 ;
272 [label="gini = 0.0\nsamples = 1\nvalue = [0, 0, 0 ... 0, 0, 0]\nclass = Resort Collection Sun Protection Cushion SPF 30+", fillcolor="#b439e5"] ;
271 -> 272 ;
273 [label="price <= 43.0\ngini = 0.955\nsamples = 22\nvalue = [0, 0, 0 ... 0, 0, 0]\nclass = Advanced Acne & Wrinkle Reducer", fillcolor="#ffffff"] ;
271 -> 273 ;
274 [label="gini = 0.5\nsamples = 2\nvalue = [0, 0, 0 ... 0, 0, 0]\nclass = Camera Ready BB Cream SPF 35", fillcolor="#ffffff"] ;
273 -> 274 ;
275 [label="price <= 46.0\ngini = 0.95\nsamples = 20\nvalue = [0, 0, 0 ... 0, 0, 0]\nclass = Advanced Acne & Wrinkle Reducer", fillcolor="#ffffff"] ;
273 -> 275 ;
276 [label="gini = 0.0\nsamples = 1\nvalue = [0, 0, 0 ... 0, 0, 0]\nclass = Maracuja Neck Treatment", fillcolor="#397ee5"] ;
275 -> 276 ;
277 [label="price <= 49.0\ngini = 0.947\nsamples = 19\nvalue = [0, 0, 0 ... 0, 0, 0]\nclass = Advanced Acne & Wrinkle Reducer", fillcolor="#ffffff"] ;
275 -> 277 ;
278 [label="gini = 0.0\nsamples = 1\nvalue = [0, 0, 0 ... 0, 0, 0]\nclass = Superdefense SPF 20 Age Defense Moisturizer Combination Oily to Oily", fillcolor="#e539a9"] ;
277 -> 278 ;
279 [label="price <= 51.0\ngini = 0.944\nsamples = 18\nvalue = [0, 0, 0 ... 0, 0, 0]\nclass = Advanced Acne & Wrinkle Reducer", fillcolor="#ffffff"] ;
277 -> 279 ;
280 [label="gini = 0.0\nsamples = 1\nvalue = [0, 0, 0 ... 0, 0, 0]\nclass = Dr. Weil For Origins™ Mega-Mushroom Skin Relief Eye Serum", fillcolor="#39e544"] ;
279 -> 280 ;
281 [label="price <= 53.0\ngini = 0.941\nsamples = 17\nvalue = [0, 0, 0 ... 0, 0, 0]\nclass = Advanced Acne & Wrinkle Reducer", fillcolor="#ffffff"] ;
279 -> 281 ;
282 [label="gini = 0.0\nsamples = 1\nvalue = [0, 0, 0 ... 0, 0, 0]\nclass = Advanced Acne & Wrinkle Reducer", fillcolor="#e5a639"] ;
281 -> 282 ;
283 [label="price <= 57.0\ngini = 0.938\nsamples = 16\nvalue = [0, 0, 0 ... 0, 0, 0]\nclass = Advanced Night Repair Concentrated Recovery PowerFoil Mask", fillcolor="#ffffff"] ;
281 -> 283 ;
284 [label="gini = 0.0\nsamples = 1\nvalue = [0, 0, 0 ... 0, 0, 0]\nclass = Rose Gold Elixir – 24k Gold Infused Beauty Oil", fillcolor="#cb39e5"] ;
283 -> 284 ;
285 [label="price <= 62.0\ngini = 0.933\nsamples = 15\nvalue = [0, 0, 0 ... 0, 0, 0]\nclass = Advanced Night Repair Concentrated Recovery PowerFoil Mask", fillcolor="#ffffff"] ;
283 -> 285 ;
286 [label="gini = 0.0\nsamples = 1\nvalue = [0, 0, 0 ... 0, 0, 0]\nclass = Hydra Life BB Creme Broad Spectrum SPF 30", fillcolor="#39dae5"] ;
285 -> 286 ;
287 [label="price <= 64.5\ngini = 0.929\nsamples = 14\nvalue = [0, 0, 0 ... 0, 0, 0]\nclass = Advanced Night Repair Concentrated Recovery PowerFoil Mask", fillcolor="#ffffff"] ;
285 -> 287 ;
288 [label="gini = 0.0\nsamples = 1\nvalue = [0, 0, 0 ... 0, 0, 0]\nclass = Extra-Firming Eye Wrinkle Smoothing Cream", fillcolor="#39e572"] ;
287 -> 288 ;
289 [label="price <= 66.5\ngini = 0.923\nsamples = 13\nvalue = [0, 0, 0 ... 0, 0, 0]\nclass = Advanced Night Repair Concentrated Recovery PowerFoil Mask", fillcolor="#ffffff"] ;
287 -> 289 ;
290 [label="gini = 0.0\nsamples = 1\nvalue = [0, 0, 0 ... 0, 0, 0]\nclass = Nutritious Vitality8™ Radiant Moisture Creme", fillcolor="#393fe5"] ;
289 -> 290 ;
291 [label="price <= 68.5\ngini = 0.917\nsamples = 12\nvalue = [0, 0, 0 ... 0, 0, 0]\nclass = Advanced Night Repair Concentrated Recovery PowerFoil Mask", fillcolor="#ffffff"] ;
289 -> 291 ;
292 [label="gini = 0.5\nsamples = 2\nvalue = [0, 0, 0 ... 0, 0, 0]\nclass = Bio Performance Glow Revival Eye Treatment", fillcolor="#ffffff"] ;
291 -> 292 ;
293 [label="price <= 69.5\ngini = 0.9\nsamples = 10\nvalue = [0, 0, 0 ... 0, 0, 0]\nclass = Advanced Night Repair Concentrated Recovery PowerFoil Mask", fillcolor="#ffffff"] ;
291 -> 293 ;
294 [label="gini = 0.0\nsamples = 1\nvalue = [0, 0, 0 ... 0, 0, 0]\nclass = Essential-C Eye Cream SPF 15 PA++", fillcolor="#39e561"] ;
293 -> 294 ;
295 [label="price <= 73.0\ngini = 0.889\nsamples = 9\nvalue = [0, 0, 0 ... 0, 0, 0]\nclass = Advanced Night Repair Concentrated Recovery PowerFoil Mask", fillcolor="#ffffff"] ;
293 -> 295 ;
296 [label="gini = 0.0\nsamples = 1\nvalue = [0, 0, 0 ... 0, 0, 0]\nclass = Ultimate Miracle Worker Eye Cream", fillcolor="#e5395e"] ;
295 -> 296 ;
297 [label="price <= 78.0\ngini = 0.875\nsamples = 8\nvalue = [0, 0, 0 ... 0, 0, 0]\nclass = Advanced Night Repair Concentrated Recovery PowerFoil Mask", fillcolor="#ffffff"] ;
295 -> 297 ;
298 [label="gini = 0.0\nsamples = 1\nvalue = [0, 0, 0 ... 0, 0, 0]\nclass = Benefiance NutriPerfect Eye Serum", fillcolor="#e5df39"] ;
297 -> 298 ;
299 [label="price <= 82.5\ngini = 0.857\nsamples = 7\nvalue = [0, 0, 0 ... 0, 0, 0]\nclass = Advanced Night Repair Concentrated Recovery PowerFoil Mask", fillcolor="#ffffff"] ;
297 -> 299 ;
300 [label="gini = 0.0\nsamples = 1\nvalue = [0, 0, 0 ... 0, 0, 0]\nclass = Advanced Night Repair Concentrated Recovery PowerFoil Mask", fillcolor="#e5ae39"] ;
299 -> 300 ;
301 [label="price <= 85.5\ngini = 0.833\nsamples = 6\nvalue = [0, 0, 0 ... 0, 0, 0]\nclass = Black Tea Corset Cream Firming Moisturizer", fillcolor="#ffffff"] ;
299 -> 301 ;
302 [label="gini = 0.5\nsamples = 2\nvalue = [0, 0, 0 ... 0, 0, 0]\nclass = Calm Cool & Corrected", fillcolor="#ffffff"] ;
301 -> 302 ;
303 [label="price <= 90.5\ngini = 0.75\nsamples = 4\nvalue = [0, 0, 0 ... 0, 0, 0]\nclass = Black Tea Corset Cream Firming Moisturizer", fillcolor="#ffffff"] ;
301 -> 303 ;
304 [label="gini = 0.0\nsamples = 1\nvalue = [0, 0, 0 ... 0, 0, 0]\nclass = Idealist Pore Minimizing Skin Refinisher", fillcolor="#39bde5"] ;
303 -> 304 ;
305 [label="price <= 96.5\ngini = 0.667\nsamples = 3\nvalue = [0, 0, 0 ... 0, 0, 0]\nclass = Black Tea Corset Cream Firming Moisturizer", fillcolor="#ffffff"] ;
303 -> 305 ;
306 [label="gini = 0.0\nsamples = 1\nvalue = [0, 0, 0 ... 0, 0, 0]\nclass = Black Tea Corset Cream Firming Moisturizer", fillcolor="#d1e539"] ;
305 -> 306 ;
307 [label="price <= 99.0\ngini = 0.5\nsamples = 2\nvalue = [0, 0, 0 ... 0, 0, 0]\nclass = Daily Moisture SPF 30 Concentrate", fillcolor="#ffffff"] ;
305 -> 307 ;
308 [label="gini = 0.0\nsamples = 1\nvalue = [0, 0, 0 ... 0, 0, 0]\nclass = Enlighten Dark Spot Correcting Night Serum", fillcolor="#39e556"] ;
307 -> 308 ;
309 [label="gini = 0.0\nsamples = 1\nvalue = [0, 0, 0 ... 0, 0, 0]\nclass = Daily Moisture SPF 30 Concentrate", fillcolor="#56e539"] ;
307 -> 309 ;
310 [label="price <= 10.5\ngini = 0.997\nsamples = 303\nvalue = [0, 0, 0 ... 0, 0, 0]\nclass = 3 Muslin Cloths", fillcolor="#ffffff"] ;
258 -> 310 ;
311 [label="rank <= 4.6\ngini = 0.5\nsamples = 2\nvalue = [0, 0, 0 ... 0, 0, 0]\nclass = Black Charcoal Blotting Linens", fillcolor="#ffffff"] ;
310 -> 311 ;
312 [label="gini = 0.0\nsamples = 1\nvalue = [0, 0, 0 ... 0, 0, 0]\nclass = Black Charcoal Blotting Linens", fillcolor="#dae539"] ;
311 -> 312 ;
313 [label="gini = 0.0\nsamples = 1\nvalue = [0, 0, 0 ... 0, 0, 0]\nclass = Facial Cotton", fillcolor="#39e592"] ;
311 -> 313 ;
314 [label="price <= 11.5\ngini = 0.997\nsamples = 301\nvalue = [0, 0, 0 ... 0, 0, 0]\nclass = 3 Muslin Cloths", fillcolor="#ffffff"] ;
310 -> 314 ;
315 [label="gini = 0.0\nsamples = 1\nvalue = [0, 0, 0 ... 0, 0, 0]\nclass = Waterproof Eye Makeup Remover", fillcolor="#e55b39"] ;
314 -> 315 ;
316 [label="price <= 13.5\ngini = 0.997\nsamples = 300\nvalue = [0, 0, 0 ... 0, 0, 0]\nclass = 3 Muslin Cloths", fillcolor="#ffffff"] ;
314 -> 316 ;
317 [label="gini = 0.0\nsamples = 1\nvalue = [0, 0, 0 ... 0, 0, 0]\nclass = Black Magic Set of 2 Makeup Remover Cloths", fillcolor="#d7e539"] ;
316 -> 317 ;
318 [label="rank <= 4.15\ngini = 0.997\nsamples = 299\nvalue = [0, 0, 0 ... 0, 0, 0]\nclass = 3 Muslin Cloths", fillcolor="#ffffff"] ;
316 -> 318 ;
319 [label="price <= 23.0\ngini = 0.977\nsamples = 44\nvalue = [0, 0, 0 ... 0, 0, 0]\nclass = 50+ SPF Sunscreen For Face Wrinkle Control Cream", fillcolor="#ffffff"] ;
318 -> 319 ;
320 [label="gini = 0.0\nsamples = 1\nvalue = [0, 0, 0 ... 0, 0, 0]\nclass = Foaming Sonic Facial Soap", fillcolor="#39e5ac"] ;
319 -> 320 ;
321 [label="price <= 25.5\ngini = 0.977\nsamples = 43\nvalue = [0, 0, 0 ... 0, 0, 0]\nclass = 50+ SPF Sunscreen For Face Wrinkle Control Cream", fillcolor="#ffffff"] ;
319 -> 321 ;
322 [label="gini = 0.0\nsamples = 1\nvalue = [0, 0, 0 ... 0, 0, 0]\nclass = Sugar Sport Treatment Sunscreen SPF 30", fillcolor="#e539ba"] ;
321 -> 322 ;
323 [label="price <= 26.5\ngini = 0.976\nsamples = 42\nvalue = [0, 0, 0 ... 0, 0, 0]\nclass = 50+ SPF Sunscreen For Face Wrinkle Control Cream", fillcolor="#ffffff"] ;
321 -> 323 ;
324 [label="gini = 0.75\nsamples = 4\nvalue = [0, 0, 0 ... 0, 0, 0]\nclass = City Block Sheer Oil-Free Daily Face Protector SPF 25", fillcolor="#ffffff"] ;
323 -> 324 ;
325 [label="price <= 30.5\ngini = 0.974\nsamples = 38\nvalue = [0, 0, 0 ... 0, 0, 0]\nclass = 50+ SPF Sunscreen For Face Wrinkle Control Cream", fillcolor="#ffffff"] ;
323 -> 325 ;
326 [label="gini = 0.0\nsamples = 1\nvalue = [0, 0, 0 ... 0, 0, 0]\nclass = Prime Time BB Tinted Primer Broad Spectrum SPF 30", fillcolor="#7b39e5"] ;
325 -> 326 ;
327 [label="price <= 34.5\ngini = 0.973\nsamples = 37\nvalue = [0, 0, 0 ... 0, 0, 0]\nclass = 50+ SPF Sunscreen For Face Wrinkle Control Cream", fillcolor="#ffffff"] ;
325 -> 327 ;
328 [label="gini = 0.0\nsamples = 1\nvalue = [0, 0, 0 ... 0, 0, 0]\nclass = Naked Skin Bronzing Beauty Balm Broad Spectrum SPF 20", fillcolor="#394de5"] ;
327 -> 328 ;
329 [label="price <= 35.5\ngini = 0.972\nsamples = 36\nvalue = [0, 0, 0 ... 0, 0, 0]\nclass = 50+ SPF Sunscreen For Face Wrinkle Control Cream", fillcolor="#ffffff"] ;
327 -> 329 ;
330 [label="gini = 0.0\nsamples = 1\nvalue = [0, 0, 0 ... 0, 0, 0]\nclass = 50+ SPF Sunscreen For Face Wrinkle Control Cream", fillcolor="#e58f39"] ;
329 -> 330 ;
331 [label="price <= 37.0\ngini = 0.971\nsamples = 35\nvalue = [0, 0, 0 ... 0, 0, 0]\nclass = ABSOLUE PREMIUM ßx - Absolute Replenishing Lotion SPF 15 Sunscreen", fillcolor="#ffffff"] ;
329 -> 331 ;
332 [label="gini = 0.5\nsamples = 2\nvalue = [0, 0, 0 ... 0, 0, 0]\nclass = Radiance Primer Broad Spectrum SPF 35 Sunscreen", fillcolor="#ffffff"] ;
331 -> 332 ;
333 [label="price <= 38.5\ngini = 0.97\nsamples = 33\nvalue = [0, 0, 0 ... 0, 0, 0]\nclass = ABSOLUE PREMIUM ßx - Absolute Replenishing Lotion SPF 15 Sunscreen", fillcolor="#ffffff"] ;
331 -> 333 ;
334 [label="gini = 0.5\nsamples = 2\nvalue = [0, 0, 0 ... 0, 0, 0]\nclass = Foundation Primer Protect Broad Spectrum SPF 30 Sunscreen PA+++", fillcolor="#ffffff"] ;
333 -> 334 ;
335 [label="price <= 39.5\ngini = 0.968\nsamples = 31\nvalue = [0, 0, 0 ... 0, 0, 0]\nclass = ABSOLUE PREMIUM ßx - Absolute Replenishing Lotion SPF 15 Sunscreen", fillcolor="#ffffff"] ;
333 -> 335 ;
336 [label="gini = 0.0\nsamples = 1\nvalue = [0, 0, 0 ... 0, 0, 0]\nclass = Mineral Moisture Defense Body Broad Spectrum SPF 50 UVA-UVB Sunscreen", fillcolor="#3964e5"] ;
335 -> 336 ;
337 [label="price <= 40.5\ngini = 0.967\nsamples = 30\nvalue = [0, 0, 0 ... 0, 0, 0]\nclass = ABSOLUE PREMIUM ßx - Absolute Replenishing Lotion SPF 15 Sunscreen", fillcolor="#ffffff"] ;
335 -> 337 ;
338 [label="gini = 0.667\nsamples = 3\nvalue = [0, 0, 0 ... 0, 0, 0]\nclass = Acne Body Wash", fillcolor="#ffffff"] ;
337 -> 338 ;
339 [label="price <= 41.5\ngini = 0.963\nsamples = 27\nvalue = [0, 0, 0 ... 0, 0, 0]\nclass = ABSOLUE PREMIUM ßx - Absolute Replenishing Lotion SPF 15 Sunscreen", fillcolor="#ffffff"] ;
337 -> 339 ;
340 [label="gini = 0.0\nsamples = 1\nvalue = [0, 0, 0 ... 0, 0, 0]\nclass = Eye Doctor™ Moisture Care For Skin Around Eyes", fillcolor="#39e575"] ;
339 -> 340 ;
341 [label="price <= 43.0\ngini = 0.962\nsamples = 26\nvalue = [0, 0, 0 ... 0, 0, 0]\nclass = ABSOLUE PREMIUM ßx - Absolute Replenishing Lotion SPF 15 Sunscreen", fillcolor="#ffffff"] ;
339 -> 341 ;
342 [label="gini = 0.75\nsamples = 4\nvalue = [0, 0, 0 ... 0, 0, 0]\nclass = Max Sheer All Day Moisture Defense Lotion SPF 30 Sunscreen Lotion", fillcolor="#ffffff"] ;
341 -> 342 ;
343 [label="price <= 44.5\ngini = 0.955\nsamples = 22\nvalue = [0, 0, 0 ... 0, 0, 0]\nclass = ABSOLUE PREMIUM ßx - Absolute Replenishing Lotion SPF 15 Sunscreen", fillcolor="#ffffff"] ;
341 -> 343 ;
344 [label="gini = 0.0\nsamples = 1\nvalue = [0, 0, 0 ... 0, 0, 0]\nclass = Immortelle Eye Balm", fillcolor="#39bae5"] ;
343 -> 344 ;
345 [label="price <= 46.5\ngini = 0.952\nsamples = 21\nvalue = [0, 0, 0 ... 0, 0, 0]\nclass = ABSOLUE PREMIUM ßx - Absolute Replenishing Lotion SPF 15 Sunscreen", fillcolor="#ffffff"] ;
343 -> 345 ;
346 [label="gini = 0.5\nsamples = 2\nvalue = [0, 0, 0 ... 0, 0, 0]\nclass = Ibuki Refining Moisturizer", fillcolor="#ffffff"] ;
345 -> 346 ;
347 [label="price <= 49.0\ngini = 0.947\nsamples = 19\nvalue = [0, 0, 0 ... 0, 0, 0]\nclass = ABSOLUE PREMIUM ßx - Absolute Replenishing Lotion SPF 15 Sunscreen", fillcolor="#ffffff"] ;
345 -> 347 ;
348 [label="gini = 0.5\nsamples = 2\nvalue = [0, 0, 0 ... 0, 0, 0]\nclass = Ain’t Misbehavin’® Intensive 10% Sulfur Acne Mask & Emergency Spot Treatment", fillcolor="#ffffff"] ;
347 -> 348 ;
349 [label="price <= 51.5\ngini = 0.941\nsamples = 17\nvalue = [0, 0, 0 ... 0, 0, 0]\nclass = ABSOLUE PREMIUM ßx - Absolute Replenishing Lotion SPF 15 Sunscreen", fillcolor="#ffffff"] ;
347 -> 349 ;
350 [label="gini = 0.667\nsamples = 3\nvalue = [0, 0, 0 ... 0, 0, 0]\nclass = Even Better Skin Tone Correcting Moisturizer Broad Spectrum SPF 20", fillcolor="#ffffff"] ;
349 -> 350 ;
351 [label="price <= 53.5\ngini = 0.929\nsamples = 14\nvalue = [0, 0, 0 ... 0, 0, 0]\nclass = ABSOLUE PREMIUM ßx - Absolute Replenishing Lotion SPF 15 Sunscreen", fillcolor="#ffffff"] ;
349 -> 351 ;
352 [label="gini = 0.0\nsamples = 1\nvalue = [0, 0, 0 ... 0, 0, 0]\nclass = Flawless Skin Mega Moisturizer SPF 15 - Normal/Dry Skin", fillcolor="#39e5a6"] ;
351 -> 352 ;
353 [label="price <= 57.0\ngini = 0.923\nsamples = 13\nvalue = [0, 0, 0 ... 0, 0, 0]\nclass = ABSOLUE PREMIUM ßx - Absolute Replenishing Lotion SPF 15 Sunscreen", fillcolor="#ffffff"] ;
351 -> 353 ;
354 [label="gini = 0.5\nsamples = 2\nvalue = [0, 0, 0 ... 0, 0, 0]\nclass = DayWear Advanced Multi-Protection Anti-Oxidant Creme, Normal/Combination", fillcolor="#ffffff"] ;
353 -> 354 ;
355 [label="price <= 67.0\ngini = 0.909\nsamples = 11\nvalue = [0, 0, 0 ... 0, 0, 0]\nclass = ABSOLUE PREMIUM ßx - Absolute Replenishing Lotion SPF 15 Sunscreen", fillcolor="#ffffff"] ;
353 -> 355 ;
356 [label="gini = 0.0\nsamples = 1\nvalue = [0, 0, 0 ... 0, 0, 0]\nclass = Vitamin C Ester Brightening Eye Serum", fillcolor="#e54439"] ;
355 -> 356 ;
357 [label="price <= 77.0\ngini = 0.9\nsamples = 10\nvalue = [0, 0, 0 ... 0, 0, 0]\nclass = ABSOLUE PREMIUM ßx - Absolute Replenishing Lotion SPF 15 Sunscreen", fillcolor="#ffffff"] ;
355 -> 357 ;
358 [label="gini = 0.0\nsamples = 1\nvalue = [0, 0, 0 ... 0, 0, 0]\nclass = Mission Perfection Serum", fillcolor="#395ee5"] ;
357 -> 358 ;
359 [label="price <= 85.0\ngini = 0.889\nsamples = 9\nvalue = [0, 0, 0 ... 0, 0, 0]\nclass = ABSOLUE PREMIUM ßx - Absolute Replenishing Lotion SPF 15 Sunscreen", fillcolor="#ffffff"] ;
357 -> 359 ;
360 [label="gini = 0.0\nsamples = 1\nvalue = [0, 0, 0 ... 0, 0, 0]\nclass = Renewing Eye Cream", fillcolor="#a939e5"] ;
359 -> 360 ;
361 [label="price <= 92.5\ngini = 0.875\nsamples = 8\nvalue = [0, 0, 0 ... 0, 0, 0]\nclass = ABSOLUE PREMIUM ßx - Absolute Replenishing Lotion SPF 15 Sunscreen", fillcolor="#ffffff"] ;
359 -> 361 ;
362 [label="gini = 0.5\nsamples = 2\nvalue = [0, 0, 0 ... 0, 0, 0]\nclass = Age Arrest Anti-Wrinkle Cream", fillcolor="#ffffff"] ;
361 -> 362 ;
363 [label="price <= 97.0\ngini = 0.833\nsamples = 6\nvalue = [0, 0, 0 ... 0, 0, 0]\nclass = ABSOLUE PREMIUM ßx - Absolute Replenishing Lotion SPF 15 Sunscreen", fillcolor="#ffffff"] ;
361 -> 363 ;
364 [label="gini = 0.0\nsamples = 1\nvalue = [0, 0, 0 ... 0, 0, 0]\nclass = Kakadu C ™ Serum", fillcolor="#39a9e5"] ;
363 -> 364 ;
365 [label="price <= 103.5\ngini = 0.8\nsamples = 5\nvalue = [0, 0, 0 ... 0, 0, 0]\nclass = ABSOLUE PREMIUM ßx - Absolute Replenishing Lotion SPF 15 Sunscreen", fillcolor="#ffffff"] ;
363 -> 365 ;
366 [label="gini = 0.0\nsamples = 1\nvalue = [0, 0, 0 ... 0, 0, 0]\nclass = High Potency Classics: Face Firming Serum", fillcolor="#39e5e2"] ;
365 -> 366 ;
367 [label="price <= 109.0\ngini = 0.75\nsamples = 4\nvalue = [0, 0, 0 ... 0, 0, 0]\nclass = ABSOLUE PREMIUM ßx - Absolute Replenishing Lotion SPF 15 Sunscreen", fillcolor="#ffffff"] ;
365 -> 367 ;
368 [label="gini = 0.0\nsamples = 1\nvalue = [0, 0, 0 ... 0, 0, 0]\nclass = Resilience Lift Firming/Sculpting Face and Neck Creme Broad Spectrum SPF 15, Normal/Combination Skin", fillcolor="#b139e5"] ;
367 -> 368 ;
369 [label="price <= 147.5\ngini = 0.667\nsamples = 3\nvalue = [0, 0, 0 ... 0, 0, 0]\nclass = ABSOLUE PREMIUM ßx - Absolute Replenishing Lotion SPF 15 Sunscreen", fillcolor="#ffffff"] ;
367 -> 369 ;
370 [label="gini = 0.0\nsamples = 1\nvalue = [0, 0, 0 ... 0, 0, 0]\nclass = Capture Totale 360 Light-Up Open-Up Replenishing Eye Serum", fillcolor="#ace539"] ;
369 -> 370 ;
371 [label="price <= 200.0\ngini = 0.5\nsamples = 2\nvalue = [0, 0, 0 ... 0, 0, 0]\nclass = ABSOLUE PREMIUM ßx - Absolute Replenishing Lotion SPF 15 Sunscreen", fillcolor="#ffffff"] ;
369 -> 371 ;
372 [label="gini = 0.0\nsamples = 1\nvalue = [0, 0, 0 ... 0, 0, 0]\nclass = ABSOLUE PREMIUM ßx - Absolute Replenishing Lotion SPF 15 Sunscreen", fillcolor="#e59539"] ;
371 -> 372 ;
373 [label="gini = 0.0\nsamples = 1\nvalue = [0, 0, 0 ... 0, 0, 0]\nclass = The Eye Balm Intense", fillcolor="#e5398f"] ;
371 -> 373 ;
374 [label="rank <= 4.25\ngini = 0.996\nsamples = 255\nvalue = [0, 0, 0 ... 0, 0, 0]\nclass = 3 Muslin Cloths", fillcolor="#ffffff"] ;
318 -> 374 ;
375 [label="price <= 20.0\ngini = 0.976\nsamples = 41\nvalue = [0, 0, 0 ... 0, 0, 0]\nclass = Advanced Active Radiance® Serum", fillcolor="#ffffff"] ;
374 -> 375 ;
376 [label="gini = 0.0\nsamples = 1\nvalue = [0, 0, 0 ... 0, 0, 0]\nclass = Mascara Melt Off Cleansing Oil", fillcolor="#397be5"] ;
375 -> 376 ;
377 [label="price <= 24.0\ngini = 0.975\nsamples = 40\nvalue = [0, 0, 0 ... 0, 0, 0]\nclass = Advanced Active Radiance® Serum", fillcolor="#ffffff"] ;
375 -> 377 ;
378 [label="gini = 0.0\nsamples = 1\nvalue = [0, 0, 0 ... 0, 0, 0]\nclass = Zero Oil™ Deep Pore Cleanser", fillcolor="#e57839"] ;
377 -> 378 ;
379 [label="price <= 25.5\ngini = 0.974\nsamples = 39\nvalue = [0, 0, 0 ... 0, 0, 0]\nclass = Advanced Active Radiance® Serum", fillcolor="#ffffff"] ;
377 -> 379 ;
380 [label="gini = 0.0\nsamples = 1\nvalue = [0, 0, 0 ... 0, 0, 0]\nclass = Colored Clay CC Undereye Corrector", fillcolor="#6de539"] ;
379 -> 380 ;
381 [label="price <= 28.0\ngini = 0.974\nsamples = 38\nvalue = [0, 0, 0 ... 0, 0, 0]\nclass = Advanced Active Radiance® Serum", fillcolor="#ffffff"] ;
379 -> 381 ;
382 [label="gini = 0.667\nsamples = 3\nvalue = [0, 0, 0 ... 0, 0, 0]\nclass = Broad Spectrum SPF 50 Sunscreen Face Cream", fillcolor="#ffffff"] ;
381 -> 382 ;
383 [label="price <= 31.0\ngini = 0.971\nsamples = 35\nvalue = [0, 0, 0 ... 0, 0, 0]\nclass = Advanced Active Radiance® Serum", fillcolor="#ffffff"] ;
381 -> 383 ;
384 [label="gini = 0.0\nsamples = 1\nvalue = [0, 0, 0 ... 0, 0, 0]\nclass = Mist & Fix Setting Spray", fillcolor="#395ee5"] ;
383 -> 384 ;
385 [label="price <= 34.0\ngini = 0.971\nsamples = 34\nvalue = [0, 0, 0 ... 0, 0, 0]\nclass = Advanced Active Radiance® Serum", fillcolor="#ffffff"] ;
383 -> 385 ;
386 [label="gini = 0.0\nsamples = 1\nvalue = [0, 0, 0 ... 0, 0, 0]\nclass = Bye Bye Redness™ Neutralizing Correcting Cream", fillcolor="#bde539"] ;
385 -> 386 ;
387 [label="price <= 37.0\ngini = 0.97\nsamples = 33\nvalue = [0, 0, 0 ... 0, 0, 0]\nclass = Advanced Active Radiance® Serum", fillcolor="#ffffff"] ;
385 -> 387 ;
388 [label="gini = 0.5\nsamples = 2\nvalue = [0, 0, 0 ... 0, 0, 0]\nclass = Gentle Daily Wash", fillcolor="#ffffff"] ;
387 -> 388 ;
389 [label="price <= 38.5\ngini = 0.968\nsamples = 31\nvalue = [0, 0, 0 ... 0, 0, 0]\nclass = Advanced Active Radiance® Serum", fillcolor="#ffffff"] ;
387 -> 389 ;
390 [label="gini = 0.667\nsamples = 3\nvalue = [0, 0, 0 ... 0, 0, 0]\nclass = Anti-Aging Primer", fillcolor="#ffffff"] ;
389 -> 390 ;
391 [label="price <= 39.5\ngini = 0.964\nsamples = 28\nvalue = [0, 0, 0 ... 0, 0, 0]\nclass = Advanced Active Radiance® Serum", fillcolor="#ffffff"] ;
389 -> 391 ;
392 [label="gini = 0.0\nsamples = 1\nvalue = [0, 0, 0 ... 0, 0, 0]\nclass = Premium Beauty Balm SPF 45", fillcolor="#7839e5"] ;
391 -> 392 ;
393 [label="price <= 40.5\ngini = 0.963\nsamples = 27\nvalue = [0, 0, 0 ... 0, 0, 0]\nclass = Advanced Active Radiance® Serum", fillcolor="#ffffff"] ;
391 -> 393 ;
394 [label="gini = 0.5\nsamples = 2\nvalue = [0, 0, 0 ... 0, 0, 0]\nclass = Turn Back Time Anti-Aging Supplement", fillcolor="#ffffff"] ;
393 -> 394 ;
395 [label="price <= 41.5\ngini = 0.96\nsamples = 25\nvalue = [0, 0, 0 ... 0, 0, 0]\nclass = Advanced Active Radiance® Serum", fillcolor="#ffffff"] ;
393 -> 395 ;
396 [label="gini = 0.0\nsamples = 1\nvalue = [0, 0, 0 ... 0, 0, 0]\nclass = Rose Hydrating Eye Gel Cream", fillcolor="#ce39e5"] ;
395 -> 396 ;
397 [label="price <= 43.0\ngini = 0.958\nsamples = 24\nvalue = [0, 0, 0 ... 0, 0, 0]\nclass = Advanced Active Radiance® Serum", fillcolor="#ffffff"] ;
395 -> 397 ;
398 [label="gini = 0.0\nsamples = 1\nvalue = [0, 0, 0 ... 0, 0, 0]\nclass = One Step Acne Eliminating Pads", fillcolor="#3c39e5"] ;
397 -> 398 ;
399 [label="price <= 44.5\ngini = 0.957\nsamples = 23\nvalue = [0, 0, 0 ... 0, 0, 0]\nclass = Advanced Active Radiance® Serum", fillcolor="#ffffff"] ;
397 -> 399 ;
400 [label="gini = 0.5\nsamples = 2\nvalue = [0, 0, 0 ... 0, 0, 0]\nclass = DayWear UV Base Advanced Anti-Oxidant & UV Defense SPF 50", fillcolor="#ffffff"] ;
399 -> 400 ;
401 [label="price <= 46.5\ngini = 0.952\nsamples = 21\nvalue = [0, 0, 0 ... 0, 0, 0]\nclass = Advanced Active Radiance® Serum", fillcolor="#ffffff"] ;
399 -> 401 ;
402 [label="gini = 0.667\nsamples = 3\nvalue = [0, 0, 0 ... 0, 0, 0]\nclass = Flawless Skin Daily Face Shield SPF 40", fillcolor="#ffffff"] ;
401 -> 402 ;
403 [label="price <= 48.5\ngini = 0.944\nsamples = 18\nvalue = [0, 0, 0 ... 0, 0, 0]\nclass = Advanced Active Radiance® Serum", fillcolor="#ffffff"] ;
401 -> 403 ;
404 [label="gini = 0.0\nsamples = 1\nvalue = [0, 0, 0 ... 0, 0, 0]\nclass = Soothing Face Cleanser Oil", fillcolor="#e539c8"] ;
403 -> 404 ;
405 [label="price <= 51.5\ngini = 0.941\nsamples = 17\nvalue = [0, 0, 0 ... 0, 0, 0]\nclass = Advanced Active Radiance® Serum", fillcolor="#ffffff"] ;
403 -> 405 ;
406 [label="gini = 0.5\nsamples = 2\nvalue = [0, 0, 0 ... 0, 0, 0]\nclass = Bienfait Multi-Vital Sunscreen Lotion Broad Spectrum SPF 30", fillcolor="#ffffff"] ;
405 -> 406 ;
407 [label="price <= 58.0\ngini = 0.933\nsamples = 15\nvalue = [0, 0, 0 ... 0, 0, 0]\nclass = Advanced Active Radiance® Serum", fillcolor="#ffffff"] ;
405 -> 407 ;
408 [label="gini = 0.667\nsamples = 3\nvalue = [0, 0, 0 ... 0, 0, 0]\nclass = EradiKate™ Mask Foam-Activated Acne Treatment", fillcolor="#ffffff"] ;
407 -> 408 ;
409 [label="price <= 63.5\ngini = 0.917\nsamples = 12\nvalue = [0, 0, 0 ... 0, 0, 0]\nclass = Advanced Active Radiance® Serum", fillcolor="#ffffff"] ;
407 -> 409 ;
410 [label="gini = 0.0\nsamples = 1\nvalue = [0, 0, 0 ... 0, 0, 0]\nclass = Rose Face Mask", fillcolor="#cb39e5"] ;
409 -> 410 ;
411 [label="price <= 67.0\ngini = 0.909\nsamples = 11\nvalue = [0, 0, 0 ... 0, 0, 0]\nclass = Advanced Active Radiance® Serum", fillcolor="#ffffff"] ;
409 -> 411 ;
412 [label="gini = 0.0\nsamples = 1\nvalue = [0, 0, 0 ... 0, 0, 0]\nclass = Mega Rich Intensive Anti-Aging Cellular Eye Creme", fillcolor="#3972e5"] ;
411 -> 412 ;
413 [label="price <= 72.0\ngini = 0.9\nsamples = 10\nvalue = [0, 0, 0 ... 0, 0, 0]\nclass = Advanced Active Radiance® Serum", fillcolor="#ffffff"] ;
411 -> 413 ;
414 [label="gini = 0.5\nsamples = 2\nvalue = [0, 0, 0 ... 0, 0, 0]\nclass = Bio Retinoid Anti-Wrinkle Concentrate Oil", fillcolor="#ffffff"] ;
413 -> 414 ;
415 [label="price <= 78.5\ngini = 0.875\nsamples = 8\nvalue = [0, 0, 0 ... 0, 0, 0]\nclass = Advanced Active Radiance® Serum", fillcolor="#ffffff"] ;
413 -> 415 ;
416 [label="gini = 0.0\nsamples = 1\nvalue = [0, 0, 0 ... 0, 0, 0]\nclass = Quench Hydrating Face Serum", fillcolor="#9239e5"] ;
415 -> 416 ;
417 [label="price <= 83.0\ngini = 0.857\nsamples = 7\nvalue = [0, 0, 0 ... 0, 0, 0]\nclass = Advanced Active Radiance® Serum", fillcolor="#ffffff"] ;
415 -> 417 ;
418 [label="gini = 0.0\nsamples = 1\nvalue = [0, 0, 0 ... 0, 0, 0]\nclass = Capture Dreamskin Fresh & Perfect Cushion Broad Spectrum SPF 50", fillcolor="#ace539"] ;
417 -> 418 ;
419 [label="price <= 87.0\ngini = 0.833\nsamples = 6\nvalue = [0, 0, 0 ... 0, 0, 0]\nclass = Advanced Active Radiance® Serum", fillcolor="#ffffff"] ;
417 -> 419 ;
420 [label="gini = 0.0\nsamples = 1\nvalue = [0, 0, 0 ... 0, 0, 0]\nclass = Rapid Collagen Infusion", fillcolor="#9d39e5"] ;
419 -> 420 ;
421 [label="price <= 92.5\ngini = 0.8\nsamples = 5\nvalue = [0, 0, 0 ... 0, 0, 0]\nclass = Advanced Active Radiance® Serum", fillcolor="#ffffff"] ;
419 -> 421 ;
422 [label="gini = 0.0\nsamples = 1\nvalue = [0, 0, 0 ... 0, 0, 0]\nclass = Advanced Active Radiance® Serum", fillcolor="#e5a639"] ;
421 -> 422 ;
423 [label="price <= 96.5\ngini = 0.75\nsamples = 4\nvalue = [0, 0, 0 ... 0, 0, 0]\nclass = Concentrated Reconstructing Serum", fillcolor="#ffffff"] ;
421 -> 423 ;
424 [label="gini = 0.0\nsamples = 1\nvalue = [0, 0, 0 ... 0, 0, 0]\nclass = The Cleansing Gel", fillcolor="#e53995"] ;
423 -> 424 ;
425 [label="price <= 121.5\ngini = 0.667\nsamples = 3\nvalue = [0, 0, 0 ... 0, 0, 0]\nclass = Concentrated Reconstructing Serum", fillcolor="#ffffff"] ;
423 -> 425 ;
426 [label="gini = 0.0\nsamples = 1\nvalue = [0, 0, 0 ... 0, 0, 0]\nclass = Concentrated Reconstructing Serum", fillcolor="#6ae539"] ;
425 -> 426 ;
427 [label="price <= 147.5\ngini = 0.5\nsamples = 2\nvalue = [0, 0, 0 ... 0, 0, 0]\nclass = Crème Ancienne® Soft Cream", fillcolor="#ffffff"] ;
425 -> 427 ;
428 [label="gini = 0.0\nsamples = 1\nvalue = [0, 0, 0 ... 0, 0, 0]\nclass = Crème Ancienne® Soft Cream", fillcolor="#64e539"] ;
427 -> 428 ;
429 [label="gini = 0.0\nsamples = 1\nvalue = [0, 0, 0 ... 0, 0, 0]\nclass = FIRMx Growth Factor Extreme Neuropeptide Serum", fillcolor="#39e57e"] ;
427 -> 429 ;
430 [label="rank <= 4.35\ngini = 0.995\nsamples = 214\nvalue = [0, 0, 0 ... 0, 0, 0]\nclass = 3 Muslin Cloths", fillcolor="#ffffff"] ;
374 -> 430 ;
431 [label="price <= 19.5\ngini = 0.979\nsamples = 47\nvalue = [0, 0, 0 ... 0, 0, 0]\nclass = 3 Muslin Cloths", fillcolor="#ffffff"] ;
430 -> 431 ;
432 [label="gini = 0.0\nsamples = 1\nvalue = [0, 0, 0 ... 0, 0, 0]\nclass = Rinse-Off Eye Makeup Solvent", fillcolor="#c339e5"] ;
431 -> 432 ;
433 [label="price <= 21.0\ngini = 0.978\nsamples = 46\nvalue = [0, 0, 0 ... 0, 0, 0]\nclass = 3 Muslin Cloths", fillcolor="#ffffff"] ;
431 -> 433 ;
434 [label="gini = 0.0\nsamples = 1\nvalue = [0, 0, 0 ... 0, 0, 0]\nclass = The Original MakeUp Eraser® Makeup Remover Cloth", fillcolor="#e53981"] ;
433 -> 434 ;
435 [label="price <= 22.5\ngini = 0.978\nsamples = 45\nvalue = [0, 0, 0 ... 0, 0, 0]\nclass = 3 Muslin Cloths", fillcolor="#ffffff"] ;
433 -> 435 ;
436 [label="gini = 0.0\nsamples = 1\nvalue = [0, 0, 0 ... 0, 0, 0]\nclass = 3 Muslin Cloths", fillcolor="#e58939"] ;
435 -> 436 ;
437 [label="price <= 24.0\ngini = 0.977\nsamples = 44\nvalue = [0, 0, 0 ... 0, 0, 0]\nclass = Age Arrest Hydrating Firming Mask", fillcolor="#ffffff"] ;
435 -> 437 ;
438 [label="gini = 0.667\nsamples = 3\nvalue = [0, 0, 0 ... 0, 0, 0]\nclass = Intensive Instant Moisturizer + Cream", fillcolor="#ffffff"] ;
437 -> 438 ;
439 [label="price <= 25.5\ngini = 0.976\nsamples = 41\nvalue = [0, 0, 0 ... 0, 0, 0]\nclass = Age Arrest Hydrating Firming Mask", fillcolor="#ffffff"] ;
437 -> 439 ;
440 [label="gini = 0.5\nsamples = 2\nvalue = [0, 0, 0 ... 0, 0, 0]\nclass = Gentle Oil-Free Eye Makeup Remover", fillcolor="#ffffff"] ;
439 -> 440 ;
441 [label="price <= 27.0\ngini = 0.974\nsamples = 39\nvalue = [0, 0, 0 ... 0, 0, 0]\nclass = Age Arrest Hydrating Firming Mask", fillcolor="#ffffff"] ;
439 -> 441 ;
442 [label="gini = 0.0\nsamples = 1\nvalue = [0, 0, 0 ... 0, 0, 0]\nclass = Balancing Facial Tonic", fillcolor="#e5d739"] ;
441 -> 442 ;
443 [label="price <= 29.0\ngini = 0.974\nsamples = 38\nvalue = [0, 0, 0 ... 0, 0, 0]\nclass = Age Arrest Hydrating Firming Mask", fillcolor="#ffffff"] ;
441 -> 443 ;
444 [label="gini = 0.5\nsamples = 2\nvalue = [0, 0, 0 ... 0, 0, 0]\nclass = Bergamot Herbal Extract Toner", fillcolor="#ffffff"] ;
443 -> 444 ;
445 [label="price <= 31.5\ngini = 0.972\nsamples = 36\nvalue = [0, 0, 0 ... 0, 0, 0]\nclass = Age Arrest Hydrating Firming Mask", fillcolor="#ffffff"] ;
443 -> 445 ;
446 [label="gini = 0.0\nsamples = 1\nvalue = [0, 0, 0 ... 0, 0, 0]\nclass = OMG!™ Omega The Great Supplements", fillcolor="#393ce5"] ;
445 -> 446 ;
447 [label="price <= 33.5\ngini = 0.971\nsamples = 35\nvalue = [0, 0, 0 ... 0, 0, 0]\nclass = Age Arrest Hydrating Firming Mask", fillcolor="#ffffff"] ;
445 -> 447 ;
448 [label="gini = 0.0\nsamples = 1\nvalue = [0, 0, 0 ... 0, 0, 0]\nclass = Plantscription™ Anti-Aging Cleanser", fillcolor="#5e39e5"] ;
447 -> 448 ;
449 [label="price <= 34.5\ngini = 0.971\nsamples = 34\nvalue = [0, 0, 0 ... 0, 0, 0]\nclass = Age Arrest Hydrating Firming Mask", fillcolor="#ffffff"] ;
447 -> 449 ;
450 [label="gini = 0.5\nsamples = 2\nvalue = [0, 0, 0 ... 0, 0, 0]\nclass = Urban Environment Tinted UV Protector Broad Spectrum SPF 43", fillcolor="#ffffff"] ;
449 -> 450 ;
451 [label="price <= 35.5\ngini = 0.969\nsamples = 32\nvalue = [0, 0, 0 ... 0, 0, 0]\nclass = Age Arrest Hydrating Firming Mask", fillcolor="#ffffff"] ;
449 -> 451 ;
452 [label="gini = 0.0\nsamples = 1\nvalue = [0, 0, 0 ... 0, 0, 0]\nclass = Calendula Herbal Extract Alcohol Free Toner", fillcolor="#aee539"] ;
451 -> 452 ;
453 [label="price <= 37.0\ngini = 0.968\nsamples = 31\nvalue = [0, 0, 0 ... 0, 0, 0]\nclass = Age Arrest Hydrating Firming Mask", fillcolor="#ffffff"] ;
451 -> 453 ;
454 [label="gini = 0.0\nsamples = 1\nvalue = [0, 0, 0 ... 0, 0, 0]\nclass = Amazonian Clay BB Tinted Moisturizer Broad Spectrum SPF 20 Sunscreen", fillcolor="#e5c039"] ;
453 -> 454 ;
455 [label="price <= 40.0\ngini = 0.967\nsamples = 30\nvalue = [0, 0, 0 ... 0, 0, 0]\nclass = Age Arrest Hydrating Firming Mask", fillcolor="#ffffff"] ;
453 -> 455 ;
456 [label="gini = 0.5\nsamples = 2\nvalue = [0, 0, 0 ... 0, 0, 0]\nclass = High Performance Continuous Moisture Eye Cream", fillcolor="#ffffff"] ;
455 -> 456 ;
457 [label="price <= 42.5\ngini = 0.964\nsamples = 28\nvalue = [0, 0, 0 ... 0, 0, 0]\nclass = Age Arrest Hydrating Firming Mask", fillcolor="#ffffff"] ;
455 -> 457 ;
458 [label="gini = 0.667\nsamples = 3\nvalue = [0, 0, 0 ... 0, 0, 0]\nclass = Clarifying Colloidal Sulfur Mask", fillcolor="#ffffff"] ;
457 -> 458 ;
459 [label="price <= 44.0\ngini = 0.96\nsamples = 25\nvalue = [0, 0, 0 ... 0, 0, 0]\nclass = Age Arrest Hydrating Firming Mask", fillcolor="#ffffff"] ;
457 -> 459 ;
460 [label="gini = 0.0\nsamples = 1\nvalue = [0, 0, 0 ... 0, 0, 0]\nclass = Bamboo Waterlock Mask", fillcolor="#e5da39"] ;
459 -> 460 ;
461 [label="price <= 46.5\ngini = 0.958\nsamples = 24\nvalue = [0, 0, 0 ... 0, 0, 0]\nclass = Age Arrest Hydrating Firming Mask", fillcolor="#ffffff"] ;
459 -> 461 ;
462 [label="gini = 0.5\nsamples = 2\nvalue = [0, 0, 0 ... 0, 0, 0]\nclass = Lotus Youth Preserve Moisturizer", fillcolor="#ffffff"] ;
461 -> 462 ;
463 [label="price <= 48.5\ngini = 0.955\nsamples = 22\nvalue = [0, 0, 0 ... 0, 0, 0]\nclass = Age Arrest Hydrating Firming Mask", fillcolor="#ffffff"] ;
461 -> 463 ;
464 [label="gini = 0.5\nsamples = 2\nvalue = [0, 0, 0 ... 0, 0, 0]\nclass = Anti-Aging Moisturizer SPF 30 PA+++", fillcolor="#ffffff"] ;
463 -> 464 ;
465 [label="price <= 52.0\ngini = 0.95\nsamples = 20\nvalue = [0, 0, 0 ... 0, 0, 0]\nclass = Age Arrest Hydrating Firming Mask", fillcolor="#ffffff"] ;
463 -> 465 ;
466 [label="gini = 0.0\nsamples = 1\nvalue = [0, 0, 0 ... 0, 0, 0]\nclass = BIENFAIT MULTI-VITAL - SPF 30 CREAM - High Potency Vitamin Enriched Daily Moisturizing Cream", fillcolor="#e5ce39"] ;
465 -> 466 ;
467 [label="price <= 56.5\ngini = 0.947\nsamples = 19\nvalue = [0, 0, 0 ... 0, 0, 0]\nclass = Age Arrest Hydrating Firming Mask", fillcolor="#ffffff"] ;
465 -> 467 ;
468 [label="gini = 0.5\nsamples = 2\nvalue = [0, 0, 0 ... 0, 0, 0]\nclass = Smart Broad Spectrum SPF 15 Custom-Repair Moisturizer for Combination Oily Skin", fillcolor="#ffffff"] ;
467 -> 468 ;
469 [label="price <= 58.5\ngini = 0.941\nsamples = 17\nvalue = [0, 0, 0 ... 0, 0, 0]\nclass = Age Arrest Hydrating Firming Mask", fillcolor="#ffffff"] ;
467 -> 469 ;
470 [label="gini = 0.0\nsamples = 1\nvalue = [0, 0, 0 ... 0, 0, 0]\nclass = Lotus Face Treatment Oil", fillcolor="#3995e5"] ;
469 -> 470 ;
471 [label="price <= 59.5\ngini = 0.938\nsamples = 16\nvalue = [0, 0, 0 ... 0, 0, 0]\nclass = Age Arrest Hydrating Firming Mask", fillcolor="#ffffff"] ;
469 -> 471 ;
472 [label="gini = 0.0\nsamples = 1\nvalue = [0, 0, 0 ... 0, 0, 0]\nclass = One Essential City Defense SPF 50", fillcolor="#3939e5"] ;
471 -> 472 ;
473 [label="price <= 61.5\ngini = 0.933\nsamples = 15\nvalue = [0, 0, 0 ... 0, 0, 0]\nclass = Age Arrest Hydrating Firming Mask", fillcolor="#ffffff"] ;
471 -> 473 ;
474 [label="gini = 0.5\nsamples = 2\nvalue = [0, 0, 0 ... 0, 0, 0]\nclass = Benefiance WrinkleResist24 Day Emulsion Broad Spectrum SPF 18", fillcolor="#ffffff"] ;
473 -> 474 ;
475 [label="price <= 67.5\ngini = 0.923\nsamples = 13\nvalue = [0, 0, 0 ... 0, 0, 0]\nclass = Age Arrest Hydrating Firming Mask", fillcolor="#ffffff"] ;
473 -> 475 ;
476 [label="gini = 0.0\nsamples = 1\nvalue = [0, 0, 0 ... 0, 0, 0]\nclass = Benefiance WrinkleResist24 Night Emulsion", fillcolor="#e5e539"] ;
475 -> 476 ;
477 [label="price <= 72.5\ngini = 0.917\nsamples = 12\nvalue = [0, 0, 0 ... 0, 0, 0]\nclass = Age Arrest Hydrating Firming Mask", fillcolor="#ffffff"] ;
475 -> 477 ;
478 [label="gini = 0.0\nsamples = 1\nvalue = [0, 0, 0 ... 0, 0, 0]\nclass = Resurgence® Age–Balancing Moisture Broad Spectrum SPF 30", fillcolor="#b739e5"] ;
477 -> 478 ;
479 [label="price <= 74.0\ngini = 0.909\nsamples = 11\nvalue = [0, 0, 0 ... 0, 0, 0]\nclass = Age Arrest Hydrating Firming Mask", fillcolor="#ffffff"] ;
477 -> 479 ;
480 [label="gini = 0.0\nsamples = 1\nvalue = [0, 0, 0 ... 0, 0, 0]\nclass = Benefiance WrinkleResist24 Balancing Softener", fillcolor="#e5df39"] ;
479 -> 480 ;
481 [label="price <= 79.5\ngini = 0.9\nsamples = 10\nvalue = [0, 0, 0 ... 0, 0, 0]\nclass = Age Arrest Hydrating Firming Mask", fillcolor="#ffffff"] ;
479 -> 481 ;
482 [label="gini = 0.0\nsamples = 1\nvalue = [0, 0, 0 ... 0, 0, 0]\nclass = Age Arrest Hydrating Firming Mask", fillcolor="#e5b739"] ;
481 -> 482 ;
483 [label="price <= 88.0\ngini = 0.889\nsamples = 9\nvalue = [0, 0, 0 ... 0, 0, 0]\nclass = Bio-Performance Advanced Super Restoring Cream", fillcolor="#ffffff"] ;
481 -> 483 ;
484 [label="gini = 0.5\nsamples = 2\nvalue = [0, 0, 0 ... 0, 0, 0]\nclass = My Daily Dose Custom-Blended Serum Set", fillcolor="#ffffff"] ;
483 -> 484 ;
485 [label="price <= 93.5\ngini = 0.857\nsamples = 7\nvalue = [0, 0, 0 ... 0, 0, 0]\nclass = Bio-Performance Advanced Super Restoring Cream", fillcolor="#ffffff"] ;
483 -> 485 ;
486 [label="gini = 0.5\nsamples = 2\nvalue = [0, 0, 0 ... 0, 0, 0]\nclass = Bio-Performance Glow Revival Serum", fillcolor="#ffffff"] ;
485 -> 486 ;
487 [label="price <= 96.5\ngini = 0.8\nsamples = 5\nvalue = [0, 0, 0 ... 0, 0, 0]\nclass = Bio-Performance Advanced Super Restoring Cream", fillcolor="#ffffff"] ;
485 -> 487 ;
488 [label="gini = 0.0\nsamples = 1\nvalue = [0, 0, 0 ... 0, 0, 0]\nclass = The Cleansing Foam", fillcolor="#e53995"] ;
487 -> 488 ;
489 [label="price <= 111.5\ngini = 0.75\nsamples = 4\nvalue = [0, 0, 0 ... 0, 0, 0]\nclass = Bio-Performance Advanced Super Restoring Cream", fillcolor="#ffffff"] ;
487 -> 489 ;
490 [label="gini = 0.0\nsamples = 1\nvalue = [0, 0, 0 ... 0, 0, 0]\nclass = Perfectionist CP+R Wrinkle Lifting/Firming Serum", fillcolor="#5839e5"] ;
489 -> 490 ;
491 [label="price <= 126.0\ngini = 0.667\nsamples = 3\nvalue = [0, 0, 0 ... 0, 0, 0]\nclass = Bio-Performance Advanced Super Restoring Cream", fillcolor="#ffffff"] ;
489 -> 491 ;
492 [label="gini = 0.0\nsamples = 1\nvalue = [0, 0, 0 ... 0, 0, 0]\nclass = Crème Ancienne® Eye Cream", fillcolor="#64e539"] ;
491 -> 492 ;
493 [label="price <= 139.5\ngini = 0.5\nsamples = 2\nvalue = [0, 0, 0 ... 0, 0, 0]\nclass = Bio-Performance Advanced Super Restoring Cream", fillcolor="#ffffff"] ;
491 -> 493 ;
494 [label="gini = 0.0\nsamples = 1\nvalue = [0, 0, 0 ... 0, 0, 0]\nclass = Bio-Performance Advanced Super Restoring Cream", fillcolor="#dfe539"] ;
493 -> 494 ;
495 [label="gini = 0.0\nsamples = 1\nvalue = [0, 0, 0 ... 0, 0, 0]\nclass = Do Not Age with Dr. Brandt Transforming Pearl Serum", fillcolor="#39e53c"] ;
493 -> 495 ;
496 [label="price <= 15.5\ngini = 0.994\nsamples = 167\nvalue = [0, 0, 0 ... 0, 0, 0]\nclass = 7 Day Scrub Cream Rinse-Off Formula", fillcolor="#ffffff"] ;
430 -> 496 ;
497 [label="gini = 0.0\nsamples = 1\nvalue = [0, 0, 0 ... 0, 0, 0]\nclass = Facial Soap with Dish", fillcolor="#39e595"] ;
496 -> 497 ;
498 [label="rank <= 4.45\ngini = 0.994\nsamples = 166\nvalue = [0, 0, 0 ... 0, 0, 0]\nclass = 7 Day Scrub Cream Rinse-Off Formula", fillcolor="#ffffff"] ;
496 -> 498 ;
499 [label="price <= 17.5\ngini = 0.983\nsamples = 59\nvalue = [0, 0, 0 ... 0, 0, 0]\nclass = A Perfect World™ Age-Defense Skin Guardian with White Tea", fillcolor="#ffffff"] ;
498 -> 499 ;
500 [label="gini = 0.667\nsamples = 3\nvalue = [0, 0, 0 ... 0, 0, 0]\nclass = Clarifying Lotion 2", fillcolor="#ffffff"] ;
499 -> 500 ;
501 [label="price <= 21.0\ngini = 0.982\nsamples = 56\nvalue = [0, 0, 0 ... 0, 0, 0]\nclass = A Perfect World™ Age-Defense Skin Guardian with White Tea", fillcolor="#ffffff"] ;
499 -> 501 ;
502 [label="gini = 0.0\nsamples = 1\nvalue = [0, 0, 0 ... 0, 0, 0]\nclass = Naturally Gentle Eye Makeup Remover", fillcolor="#394ae5"] ;
501 -> 502 ;
503 [label="price <= 23.5\ngini = 0.982\nsamples = 55\nvalue = [0, 0, 0 ... 0, 0, 0]\nclass = A Perfect World™ Age-Defense Skin Guardian with White Tea", fillcolor="#ffffff"] ;
501 -> 503 ;
504 [label="gini = 0.0\nsamples = 1\nvalue = [0, 0, 0 ... 0, 0, 0]\nclass = Instant Moisturizer + Cream", fillcolor="#39b4e5"] ;
503 -> 504 ;
505 [label="price <= 24.5\ngini = 0.981\nsamples = 54\nvalue = [0, 0, 0 ... 0, 0, 0]\nclass = A Perfect World™ Age-Defense Skin Guardian with White Tea", fillcolor="#ffffff"] ;
503 -> 505 ;
506 [label="gini = 0.667\nsamples = 3\nvalue = [0, 0, 0 ... 0, 0, 0]\nclass = Deep Pore Cleansing Clay", fillcolor="#ffffff"] ;
505 -> 506 ;
507 [label="price <= 25.5\ngini = 0.98\nsamples = 51\nvalue = [0, 0, 0 ... 0, 0, 0]\nclass = A Perfect World™ Age-Defense Skin Guardian with White Tea", fillcolor="#ffffff"] ;
505 -> 507 ;
508 [label="gini = 0.667\nsamples = 3\nvalue = [0, 0, 0 ... 0, 0, 0]\nclass = Deep Dive Cleansing Gel Rainforest of the Sea™", fillcolor="#ffffff"] ;
507 -> 508 ;
509 [label="price <= 27.0\ngini = 0.979\nsamples = 48\nvalue = [0, 0, 0 ... 0, 0, 0]\nclass = A Perfect World™ Age-Defense Skin Guardian with White Tea", fillcolor="#ffffff"] ;
507 -> 509 ;
510 [label="gini = 0.0\nsamples = 1\nvalue = [0, 0, 0 ... 0, 0, 0]\nclass = Tonique Douceur Softening Hydrating Toner with Rose Water", fillcolor="#e5396d"] ;
509 -> 510 ;
511 [label="price <= 29.0\ngini = 0.979\nsamples = 47\nvalue = [0, 0, 0 ... 0, 0, 0]\nclass = A Perfect World™ Age-Defense Skin Guardian with White Tea", fillcolor="#ffffff"] ;
509 -> 511 ;
512 [label="gini = 0.667\nsamples = 3\nvalue = [0, 0, 0 ... 0, 0, 0]\nclass = Out of Trouble™ 10 Minute Mask to Rescue Problem Skin", fillcolor="#ffffff"] ;
511 -> 512 ;
513 [label="price <= 32.0\ngini = 0.977\nsamples = 44\nvalue = [0, 0, 0 ... 0, 0, 0]\nclass = A Perfect World™ Age-Defense Skin Guardian with White Tea", fillcolor="#ffffff"] ;
511 -> 513 ;
514 [label="gini = 0.667\nsamples = 3\nvalue = [0, 0, 0 ... 0, 0, 0]\nclass = Essential-C Toner", fillcolor="#ffffff"] ;
513 -> 514 ;
515 [label="price <= 34.5\ngini = 0.976\nsamples = 41\nvalue = [0, 0, 0 ... 0, 0, 0]\nclass = A Perfect World™ Age-Defense Skin Guardian with White Tea", fillcolor="#ffffff"] ;
513 -> 515 ;
516 [label="gini = 0.0\nsamples = 1\nvalue = [0, 0, 0 ... 0, 0, 0]\nclass = Sun Protection Eye Cream Broad Spectrum SPF 34 Sunscreen", fillcolor="#e539b4"] ;
515 -> 516 ;
517 [label="price <= 35.5\ngini = 0.975\nsamples = 40\nvalue = [0, 0, 0 ... 0, 0, 0]\nclass = A Perfect World™ Age-Defense Skin Guardian with White Tea", fillcolor="#ffffff"] ;
515 -> 517 ;
518 [label="gini = 0.0\nsamples = 1\nvalue = [0, 0, 0 ... 0, 0, 0]\nclass = Dermaclear™ Trans-Foam Clay Trio", fillcolor="#44e539"] ;
517 -> 518 ;
519 [label="price <= 37.0\ngini = 0.974\nsamples = 39\nvalue = [0, 0, 0 ... 0, 0, 0]\nclass = A Perfect World™ Age-Defense Skin Guardian with White Tea", fillcolor="#ffffff"] ;
517 -> 519 ;
520 [label="gini = 0.0\nsamples = 1\nvalue = [0, 0, 0 ... 0, 0, 0]\nclass = Superfood Antioxidant Cleanser", fillcolor="#e539a9"] ;
519 -> 520 ;
521 [label="price <= 38.5\ngini = 0.974\nsamples = 38\nvalue = [0, 0, 0 ... 0, 0, 0]\nclass = A Perfect World™ Age-Defense Skin Guardian with White Tea", fillcolor="#ffffff"] ;
519 -> 521 ;
522 [label="gini = 0.667\nsamples = 3\nvalue = [0, 0, 0 ... 0, 0, 0]\nclass = Anti-Aging Cleansing Gel", fillcolor="#ffffff"] ;
521 -> 522 ;
523 [label="price <= 39.5\ngini = 0.971\nsamples = 35\nvalue = [0, 0, 0 ... 0, 0, 0]\nclass = A Perfect World™ Age-Defense Skin Guardian with White Tea", fillcolor="#ffffff"] ;
521 -> 523 ;
524 [label="gini = 0.0\nsamples = 1\nvalue = [0, 0, 0 ... 0, 0, 0]\nclass = Refreshing Cleanser", fillcolor="#a039e5"] ;
523 -> 524 ;
525 [label="price <= 40.5\ngini = 0.971\nsamples = 34\nvalue = [0, 0, 0 ... 0, 0, 0]\nclass = A Perfect World™ Age-Defense Skin Guardian with White Tea", fillcolor="#ffffff"] ;
523 -> 525 ;
526 [label="gini = 0.5\nsamples = 2\nvalue = [0, 0, 0 ... 0, 0, 0]\nclass = BIENFAIT UV SPF 50+ Super Fluid Facial Sunscreen", fillcolor="#ffffff"] ;
525 -> 526 ;
527 [label="price <= 43.0\ngini = 0.969\nsamples = 32\nvalue = [0, 0, 0 ... 0, 0, 0]\nclass = A Perfect World™ Age-Defense Skin Guardian with White Tea", fillcolor="#ffffff"] ;
525 -> 527 ;
528 [label="gini = 0.0\nsamples = 1\nvalue = [0, 0, 0 ... 0, 0, 0]\nclass = Original Skin™ Renewal Serum with Willowherb", fillcolor="#4139e5"] ;
527 -> 528 ;
529 [label="price <= 46.5\ngini = 0.968\nsamples = 31\nvalue = [0, 0, 0 ... 0, 0, 0]\nclass = A Perfect World™ Age-Defense Skin Guardian with White Tea", fillcolor="#ffffff"] ;
527 -> 529 ;
530 [label="gini = 0.667\nsamples = 3\nvalue = [0, 0, 0 ... 0, 0, 0]\nclass = Pure Radiant Tinted Moisturizer Broad Spectrum SPF 30", fillcolor="#ffffff"] ;
529 -> 530 ;
531 [label="price <= 48.5\ngini = 0.964\nsamples = 28\nvalue = [0, 0, 0 ... 0, 0, 0]\nclass = A Perfect World™ Age-Defense Skin Guardian with White Tea", fillcolor="#ffffff"] ;
529 -> 531 ;
532 [label="gini = 0.667\nsamples = 3\nvalue = [0, 0, 0 ... 0, 0, 0]\nclass = Maracuja Oil", fillcolor="#ffffff"] ;
531 -> 532 ;
533 [label="price <= 49.5\ngini = 0.96\nsamples = 25\nvalue = [0, 0, 0 ... 0, 0, 0]\nclass = A Perfect World™ Age-Defense Skin Guardian with White Tea", fillcolor="#ffffff"] ;
531 -> 533 ;
534 [label="gini = 0.0\nsamples = 1\nvalue = [0, 0, 0 ... 0, 0, 0]\nclass = Help Me", fillcolor="#39e5df"] ;
533 -> 534 ;
535 [label="price <= 50.5\ngini = 0.958\nsamples = 24\nvalue = [0, 0, 0 ... 0, 0, 0]\nclass = A Perfect World™ Age-Defense Skin Guardian with White Tea", fillcolor="#ffffff"] ;
533 -> 535 ;
536 [label="gini = 0.5\nsamples = 2\nvalue = [0, 0, 0 ... 0, 0, 0]\nclass = Blue Moon Tranquility Cleansing Balm", fillcolor="#ffffff"] ;
535 -> 536 ;
537 [label="price <= 51.5\ngini = 0.955\nsamples = 22\nvalue = [0, 0, 0 ... 0, 0, 0]\nclass = A Perfect World™ Age-Defense Skin Guardian with White Tea", fillcolor="#ffffff"] ;
535 -> 537 ;
538 [label="gini = 0.5\nsamples = 2\nvalue = [0, 0, 0 ... 0, 0, 0]\nclass = Instant Detox Hawaiian Sea Water & White Clay Face Mask", fillcolor="#ffffff"] ;
537 -> 538 ;
539 [label="price <= 52.5\ngini = 0.95\nsamples = 20\nvalue = [0, 0, 0 ... 0, 0, 0]\nclass = A Perfect World™ Age-Defense Skin Guardian with White Tea", fillcolor="#ffffff"] ;
537 -> 539 ;
540 [label="gini = 0.0\nsamples = 1\nvalue = [0, 0, 0 ... 0, 0, 0]\nclass = Seaberry Moisturizing Face Oil", fillcolor="#e239e5"] ;
539 -> 540 ;
541 [label="price <= 54.0\ngini = 0.947\nsamples = 19\nvalue = [0, 0, 0 ... 0, 0, 0]\nclass = A Perfect World™ Age-Defense Skin Guardian with White Tea", fillcolor="#ffffff"] ;
539 -> 541 ;
542 [label="gini = 0.0\nsamples = 1\nvalue = [0, 0, 0 ... 0, 0, 0]\nclass = Flawless Skin Mega Moisturizer SPF 15 - Normal/Combination Skin", fillcolor="#39e5a6"] ;
541 -> 542 ;
543 [label="price <= 56.5\ngini = 0.944\nsamples = 18\nvalue = [0, 0, 0 ... 0, 0, 0]\nclass = A Perfect World™ Age-Defense Skin Guardian with White Tea", fillcolor="#ffffff"] ;
541 -> 543 ;
544 [label="gini = 0.0\nsamples = 1\nvalue = [0, 0, 0 ... 0, 0, 0]\nclass = Smart Broad Spectrum SPF 15 Custom-Repair Moisturizer for Very Dry to Dry Skin", fillcolor="#e539ce"] ;
543 -> 544 ;
545 [label="price <= 59.5\ngini = 0.941\nsamples = 17\nvalue = [0, 0, 0 ... 0, 0, 0]\nclass = A Perfect World™ Age-Defense Skin Guardian with White Tea", fillcolor="#ffffff"] ;
543 -> 545 ;
546 [label="gini = 0.0\nsamples = 1\nvalue = [0, 0, 0 ... 0, 0, 0]\nclass = Umbrian Clay Pore Purifying Face Mask", fillcolor="#e53947"] ;
545 -> 546 ;
547 [label="price <= 63.0\ngini = 0.938\nsamples = 16\nvalue = [0, 0, 0 ... 0, 0, 0]\nclass = A Perfect World™ Age-Defense Skin Guardian with White Tea", fillcolor="#ffffff"] ;
545 -> 547 ;
548 [label="gini = 0.0\nsamples = 1\nvalue = [0, 0, 0 ... 0, 0, 0]\nclass = A Perfect World™ Age-Defense Skin Guardian with White Tea", fillcolor="#e59239"] ;
547 -> 548 ;
549 [label="price <= 66.5\ngini = 0.933\nsamples = 15\nvalue = [0, 0, 0 ... 0, 0, 0]\nclass = Benefiance Pure Retinol Intensive Revitalizing Face Mask", fillcolor="#ffffff"] ;
547 -> 549 ;
550 [label="gini = 0.5\nsamples = 2\nvalue = [0, 0, 0 ... 0, 0, 0]\nclass = Benefiance Pure Retinol Intensive Revitalizing Face Mask", fillcolor="#ffffff"] ;
549 -> 550 ;
551 [label="price <= 68.5\ngini = 0.923\nsamples = 13\nvalue = [0, 0, 0 ... 0, 0, 0]\nclass = Black Tea Kombucha Antioxidant Essence", fillcolor="#ffffff"] ;
549 -> 551 ;
552 [label="gini = 0.5\nsamples = 2\nvalue = [0, 0, 0 ... 0, 0, 0]\nclass = Black Tea Kombucha Antioxidant Essence", fillcolor="#ffffff"] ;
551 -> 552 ;
553 [label="price <= 69.5\ngini = 0.909\nsamples = 11\nvalue = [0, 0, 0 ... 0, 0, 0]\nclass = Capture Totale Multi-Perfection Creme", fillcolor="#ffffff"] ;
551 -> 553 ;
554 [label="gini = 0.0\nsamples = 1\nvalue = [0, 0, 0 ... 0, 0, 0]\nclass = Hydra Life Jelly Sleeping Mask", fillcolor="#39d7e5"] ;
553 -> 554 ;
555 [label="price <= 71.0\ngini = 0.9\nsamples = 10\nvalue = [0, 0, 0 ... 0, 0, 0]\nclass = Capture Totale Multi-Perfection Creme", fillcolor="#ffffff"] ;
553 -> 555 ;
556 [label="gini = 0.0\nsamples = 1\nvalue = [0, 0, 0 ... 0, 0, 0]\nclass = White Lucent Power Brightening Mask", fillcolor="#e56139"] ;
555 -> 556 ;
557 [label="price <= 73.5\ngini = 0.889\nsamples = 9\nvalue = [0, 0, 0 ... 0, 0, 0]\nclass = Capture Totale Multi-Perfection Creme", fillcolor="#ffffff"] ;
555 -> 557 ;
558 [label="gini = 0.0\nsamples = 1\nvalue = [0, 0, 0 ... 0, 0, 0]\nclass = Nutritious Vitality8™ Night Creme/Mask", fillcolor="#393fe5"] ;
557 -> 558 ;
559 [label="price <= 78.5\ngini = 0.875\nsamples = 8\nvalue = [0, 0, 0 ... 0, 0, 0]\nclass = Capture Totale Multi-Perfection Creme", fillcolor="#ffffff"] ;
557 -> 559 ;
560 [label="gini = 0.0\nsamples = 1\nvalue = [0, 0, 0 ... 0, 0, 0]\nclass = Hydro-Dynamic® Ultimate Moisture", fillcolor="#39c8e5"] ;
559 -> 560 ;
561 [label="price <= 88.0\ngini = 0.857\nsamples = 7\nvalue = [0, 0, 0 ... 0, 0, 0]\nclass = Capture Totale Multi-Perfection Creme", fillcolor="#ffffff"] ;
559 -> 561 ;
562 [label="gini = 0.0\nsamples = 1\nvalue = [0, 0, 0 ... 0, 0, 0]\nclass = Revitalizing Supreme Global Anti-Aging Crème", fillcolor="#c039e5"] ;
561 -> 562 ;
563 [label="price <= 96.5\ngini = 0.833\nsamples = 6\nvalue = [0, 0, 0 ... 0, 0, 0]\nclass = Capture Totale Multi-Perfection Creme", fillcolor="#ffffff"] ;
561 -> 563 ;
564 [label="gini = 0.0\nsamples = 1\nvalue = [0, 0, 0 ... 0, 0, 0]\nclass = Overnight Restorative Cream", fillcolor="#4439e5"] ;
563 -> 564 ;
565 [label="price <= 99.5\ngini = 0.8\nsamples = 5\nvalue = [0, 0, 0 ... 0, 0, 0]\nclass = Capture Totale Multi-Perfection Creme", fillcolor="#ffffff"] ;
563 -> 565 ;
566 [label="gini = 0.0\nsamples = 1\nvalue = [0, 0, 0 ... 0, 0, 0]\nclass = Vitamin C Ester Brightening Amine Face Lift", fillcolor="#e54439"] ;
565 -> 566 ;
567 [label="price <= 132.5\ngini = 0.75\nsamples = 4\nvalue = [0, 0, 0 ... 0, 0, 0]\nclass = Capture Totale Multi-Perfection Creme", fillcolor="#ffffff"] ;
565 -> 567 ;
568 [label="gini = 0.5\nsamples = 2\nvalue = [0, 0, 0 ... 0, 0, 0]\nclass = Charlotte's Magic Cream", fillcolor="#ffffff"] ;
567 -> 568 ;
569 [label="price <= 207.5\ngini = 0.5\nsamples = 2\nvalue = [0, 0, 0 ... 0, 0, 0]\nclass = Capture Totale Multi-Perfection Creme", fillcolor="#ffffff"] ;
567 -> 569 ;
570 [label="gini = 0.0\nsamples = 1\nvalue = [0, 0, 0 ... 0, 0, 0]\nclass = Capture Totale Multi-Perfection Creme", fillcolor="#a9e539"] ;
569 -> 570 ;
571 [label="gini = 0.0\nsamples = 1\nvalue = [0, 0, 0 ... 0, 0, 0]\nclass = The Brilliance Brightening Mask", fillcolor="#e53998"] ;
569 -> 571 ;
572 [label="price <= 16.5\ngini = 0.991\nsamples = 107\nvalue = [0, 0, 0 ... 0, 0, 0]\nclass = 7 Day Scrub Cream Rinse-Off Formula", fillcolor="#ffffff"] ;
498 -> 572 ;
573 [label="gini = 0.667\nsamples = 3\nvalue = [0, 0, 0 ... 0, 0, 0]\nclass = Clarifying Lotion 1", fillcolor="#ffffff"] ;
572 -> 573 ;
574 [label="rank <= 4.55\ngini = 0.99\nsamples = 104\nvalue = [0, 0, 0 ... 0, 0, 0]\nclass = 7 Day Scrub Cream Rinse-Off Formula", fillcolor="#ffffff"] ;
572 -> 574 ;
575 [label="price <= 21.0\ngini = 0.978\nsamples = 45\nvalue = [0, 0, 0 ... 0, 0, 0]\nclass = A Perfect World™ Age-Defense Treatment Lotion with White Tea", fillcolor="#ffffff"] ;
574 -> 575 ;
576 [label="gini = 0.0\nsamples = 1\nvalue = [0, 0, 0 ... 0, 0, 0]\nclass = Mud Mask Purifying & Mattifying", fillcolor="#3953e5"] ;
575 -> 576 ;
577 [label="price <= 23.0\ngini = 0.977\nsamples = 44\nvalue = [0, 0, 0 ... 0, 0, 0]\nclass = A Perfect World™ Age-Defense Treatment Lotion with White Tea", fillcolor="#ffffff"] ;
575 -> 577 ;
578 [label="gini = 0.0\nsamples = 1\nvalue = [0, 0, 0 ... 0, 0, 0]\nclass = Dermaclear™ Micro Foam Cleanser", fillcolor="#47e539"] ;
577 -> 578 ;
579 [label="price <= 24.5\ngini = 0.977\nsamples = 43\nvalue = [0, 0, 0 ... 0, 0, 0]\nclass = A Perfect World™ Age-Defense Treatment Lotion with White Tea", fillcolor="#ffffff"] ;
577 -> 579 ;
580 [label="gini = 0.0\nsamples = 1\nvalue = [0, 0, 0 ... 0, 0, 0]\nclass = Shea Cleansing Oil", fillcolor="#e539df"] ;
579 -> 580 ;
581 [label="price <= 25.5\ngini = 0.976\nsamples = 42\nvalue = [0, 0, 0 ... 0, 0, 0]\nclass = A Perfect World™ Age-Defense Treatment Lotion with White Tea", fillcolor="#ffffff"] ;
579 -> 581 ;
582 [label="gini = 0.5\nsamples = 2\nvalue = [0, 0, 0 ... 0, 0, 0]\nclass = A Perfect World™ Age-Defense Treatment Lotion with White Tea", fillcolor="#ffffff"] ;
581 -> 582 ;
583 [label="price <= 27.0\ngini = 0.975\nsamples = 40\nvalue = [0, 0, 0 ... 0, 0, 0]\nclass = ABSOLUE PREMIUM ßx – Absolute Replenishing Cream SPF 15 Sunscreen", fillcolor="#ffffff"] ;
581 -> 583 ;
584 [label="gini = 0.5\nsamples = 2\nvalue = [0, 0, 0 ... 0, 0, 0]\nclass = Crème Radiance Gentle Cleansing Creamy-Foam Cleanser", fillcolor="#ffffff"] ;
583 -> 584 ;
585 [label="price <= 29.0\ngini = 0.974\nsamples = 38\nvalue = [0, 0, 0 ... 0, 0, 0]\nclass = ABSOLUE PREMIUM ßx – Absolute Replenishing Cream SPF 15 Sunscreen", fillcolor="#ffffff"] ;
583 -> 585 ;
586 [label="gini = 0.5\nsamples = 2\nvalue = [0, 0, 0 ... 0, 0, 0]\nclass = Double Mousse Gentle Cleansing Foam", fillcolor="#ffffff"] ;
585 -> 586 ;
587 [label="price <= 31.0\ngini = 0.972\nsamples = 36\nvalue = [0, 0, 0 ... 0, 0, 0]\nclass = ABSOLUE PREMIUM ßx – Absolute Replenishing Cream SPF 15 Sunscreen", fillcolor="#ffffff"] ;
585 -> 587 ;
588 [label="gini = 0.0\nsamples = 1\nvalue = [0, 0, 0 ... 0, 0, 0]\nclass = Instant Long-Wear Makeup Remover", fillcolor="#39b4e5"] ;
587 -> 588 ;
589 [label="price <= 32.5\ngini = 0.971\nsamples = 35\nvalue = [0, 0, 0 ... 0, 0, 0]\nclass = ABSOLUE PREMIUM ßx – Absolute Replenishing Cream SPF 15 Sunscreen", fillcolor="#ffffff"] ;
587 -> 589 ;
590 [label="gini = 0.667\nsamples = 3\nvalue = [0, 0, 0 ... 0, 0, 0]\nclass = Line Smoother Oil-Free Moisturizer", fillcolor="#ffffff"] ;
589 -> 590 ;
591 [label="price <= 33.5\ngini = 0.969\nsamples = 32\nvalue = [0, 0, 0 ... 0, 0, 0]\nclass = ABSOLUE PREMIUM ßx – Absolute Replenishing Cream SPF 15 Sunscreen", fillcolor="#ffffff"] ;
589 -> 591 ;
592 [label="gini = 0.0\nsamples = 1\nvalue = [0, 0, 0 ... 0, 0, 0]\nclass = Perfect Cleansing Oil", fillcolor="#5639e5"] ;
591 -> 592 ;
593 [label="price <= 34.5\ngini = 0.968\nsamples = 31\nvalue = [0, 0, 0 ... 0, 0, 0]\nclass = ABSOLUE PREMIUM ßx – Absolute Replenishing Cream SPF 15 Sunscreen", fillcolor="#ffffff"] ;
591 -> 593 ;
594 [label="gini = 0.5\nsamples = 2\nvalue = [0, 0, 0 ... 0, 0, 0]\nclass = Extra Smooth Sun Protection Cream SPF 38 PA+++", fillcolor="#ffffff"] ;
593 -> 594 ;
595 [label="price <= 36.5\ngini = 0.966\nsamples = 29\nvalue = [0, 0, 0 ... 0, 0, 0]\nclass = ABSOLUE PREMIUM ßx – Absolute Replenishing Cream SPF 15 Sunscreen", fillcolor="#ffffff"] ;
593 -> 595 ;
596 [label="gini = 0.0\nsamples = 1\nvalue = [0, 0, 0 ... 0, 0, 0]\nclass = Moisture Surge Overnight Mask", fillcolor="#3958e5"] ;
595 -> 596 ;
597 [label="price <= 38.5\ngini = 0.964\nsamples = 28\nvalue = [0, 0, 0 ... 0, 0, 0]\nclass = ABSOLUE PREMIUM ßx – Absolute Replenishing Cream SPF 15 Sunscreen", fillcolor="#ffffff"] ;
595 -> 597 ;
598 [label="gini = 0.5\nsamples = 2\nvalue = [0, 0, 0 ... 0, 0, 0]\nclass = ExfoliKate® Cleanser Daily Foaming Wash", fillcolor="#ffffff"] ;
597 -> 598 ;
599 [label="price <= 40.5\ngini = 0.962\nsamples = 26\nvalue = [0, 0, 0 ... 0, 0, 0]\nclass = ABSOLUE PREMIUM ßx – Absolute Replenishing Cream SPF 15 Sunscreen", fillcolor="#ffffff"] ;
597 -> 599 ;
600 [label="gini = 0.833\nsamples = 6\nvalue = [0, 0, 0 ... 0, 0, 0]\nclass = Eau Ginseng", fillcolor="#ffffff"] ;
599 -> 600 ;
601 [label="price <= 44.0\ngini = 0.95\nsamples = 20\nvalue = [0, 0, 0 ... 0, 0, 0]\nclass = ABSOLUE PREMIUM ßx – Absolute Replenishing Cream SPF 15 Sunscreen", fillcolor="#ffffff"] ;
599 -> 601 ;
602 [label="gini = 0.0\nsamples = 1\nvalue = [0, 0, 0 ... 0, 0, 0]\nclass = Seaberry Skin Nutrition Cleansing Oil", fillcolor="#e239e5"] ;
601 -> 602 ;
603 [label="price <= 49.0\ngini = 0.947\nsamples = 19\nvalue = [0, 0, 0 ... 0, 0, 0]\nclass = ABSOLUE PREMIUM ßx – Absolute Replenishing Cream SPF 15 Sunscreen", fillcolor="#ffffff"] ;
601 -> 603 ;
604 [label="gini = 0.667\nsamples = 3\nvalue = [0, 0, 0 ... 0, 0, 0]\nclass = Cleansing Spa Water Makeup Remover", fillcolor="#ffffff"] ;
603 -> 604 ;
605 [label="price <= 53.5\ngini = 0.938\nsamples = 16\nvalue = [0, 0, 0 ... 0, 0, 0]\nclass = ABSOLUE PREMIUM ßx – Absolute Replenishing Cream SPF 15 Sunscreen", fillcolor="#ffffff"] ;
603 -> 605 ;
606 [label="gini = 0.0\nsamples = 1\nvalue = [0, 0, 0 ... 0, 0, 0]\nclass = BIENFAIT MULTI-VITAL NIGHT - High Potency Night Moisturizing Cream VITA-NUTRI 8™", fillcolor="#e5ce39"] ;
605 -> 606 ;
607 [label="price <= 56.0\ngini = 0.933\nsamples = 15\nvalue = [0, 0, 0 ... 0, 0, 0]\nclass = ABSOLUE PREMIUM ßx – Absolute Replenishing Cream SPF 15 Sunscreen", fillcolor="#ffffff"] ;
605 -> 607 ;
608 [label="gini = 0.5\nsamples = 2\nvalue = [0, 0, 0 ... 0, 0, 0]\nclass = Intensive-C® Radiance Peel", fillcolor="#ffffff"] ;
607 -> 608 ;
609 [label="price <= 58.5\ngini = 0.923\nsamples = 13\nvalue = [0, 0, 0 ... 0, 0, 0]\nclass = ABSOLUE PREMIUM ßx – Absolute Replenishing Cream SPF 15 Sunscreen", fillcolor="#ffffff"] ;
607 -> 609 ;
610 [label="gini = 0.0\nsamples = 1\nvalue = [0, 0, 0 ... 0, 0, 0]\nclass = Eudermine Revitalizing Essence", fillcolor="#39e561"] ;
609 -> 610 ;
611 [label="price <= 61.0\ngini = 0.917\nsamples = 12\nvalue = [0, 0, 0 ... 0, 0, 0]\nclass = ABSOLUE PREMIUM ßx – Absolute Replenishing Cream SPF 15 Sunscreen", fillcolor="#ffffff"] ;
609 -> 611 ;
612 [label="gini = 0.0\nsamples = 1\nvalue = [0, 0, 0 ... 0, 0, 0]\nclass = Diamondbuff by Bee Stunning", fillcolor="#39e539"] ;
611 -> 612 ;
613 [label="price <= 62.5\ngini = 0.909\nsamples = 11\nvalue = [0, 0, 0 ... 0, 0, 0]\nclass = ABSOLUE PREMIUM ßx – Absolute Replenishing Cream SPF 15 Sunscreen", fillcolor="#ffffff"] ;
611 -> 613 ;
614 [label="gini = 0.0\nsamples = 1\nvalue = [0, 0, 0 ... 0, 0, 0]\nclass = Lotus Youth Preserve Rescue Mask", fillcolor="#3992e5"] ;
613 -> 614 ;
